5683 50
</s> 0.008005 0.008839 -0.007661 -0.006556 0.002733 0.006042 0.001882 0.000423 -0.007207 0.004437 -0.008713 0.002499 -0.001503 -0.001914 -0.006631 -0.003764 0.005159 0.006051 0.005938 0.003195 0.003090 -0.007605 -0.008192 0.009939 0.007603 0.006180 -0.001208 0.008031 -0.000990 0.001469 -0.000298 -0.005966 0.002625 -0.002675 -0.007651 0.009508 0.008759 -0.002190 -0.000452 0.001018 -0.007275 -0.008014 0.009109 0.000126 -0.005165 -0.006084 -0.006153 0.003394 0.000403 0.002662 
Ontology_information_science 0.390682 -0.603131 -1.302777 -1.152588 0.153436 0.686431 0.917248 0.216634 -1.133787 -0.790277 0.458642 -1.710041 0.936468 -0.137436 -0.022844 0.000532 2.206568 -1.893667 -0.395338 1.314811 0.041436 0.385014 -0.415315 -0.858815 -0.298744 0.500920 -1.353051 -0.658439 0.695127 -1.695898 -0.490544 0.199202 0.370555 0.069063 0.601341 2.409750 1.086700 -0.458829 0.089828 0.543460 -0.967224 0.482928 -0.520778 1.365305 1.859068 0.482764 -0.694692 -0.740171 0.170510 0.784198 
Semantic_Web 2.319381 -0.091112 0.860936 0.609549 -0.275578 0.679619 -0.835574 -0.854177 0.541873 -0.853367 0.286110 0.330522 -1.751964 -0.025541 -0.322206 1.421534 0.928825 -1.622393 -0.107182 0.277555 -1.140527 1.338076 0.015099 -0.240425 0.221468 -0.813901 -0.202985 0.717091 -0.006885 0.037643 0.197937 -0.985909 -0.415164 -1.806918 0.736437 -0.201479 0.625510 -0.285955 -0.636100 -0.555100 -0.844763 0.754000 -0.202344 0.231475 -0.645192 0.965140 0.579997 1.365906 -1.126146 0.451821 
Semantic 0.123494 -0.325898 -1.111429 0.135886 0.496109 2.173220 -0.296076 -0.310695 -0.948925 0.093253 -0.349301 -0.297375 -0.332273 -0.037285 0.293265 0.209043 0.379560 -0.540204 0.198012 0.950654 0.458201 -0.161514 0.724770 -1.164174 0.396423 -0.973889 -0.645999 -1.041816 0.727383 -1.200663 -0.071855 1.016052 -0.263151 -0.794519 0.497667 1.940498 0.794998 -0.060379 0.178909 0.239509 -1.614612 0.495538 -0.344733 0.844990 1.010131 1.028730 -0.012594 0.373973 0.798923 -0.284214 
University -0.640473 -1.059858 0.651099 -1.161537 1.912858 -0.965386 -1.042693 -2.116216 -2.173899 -0.120716 2.256616 0.565320 -2.737025 -2.162106 0.428201 3.442551 -1.120840 1.594580 2.361326 -2.855496 -0.197515 3.465809 1.742918 -2.239050 -1.988860 -0.580932 -0.905525 -1.072381 1.047220 0.622602 0.532564 -0.590307 -2.438920 0.900766 -3.052733 -0.086220 1.500337 -1.022107 2.352875 -3.014104 -0.350441 1.104055 0.930431 0.162458 -0.221368 3.470687 -0.285895 -0.170343 -0.205720 -3.049228 
Data -0.609127 -1.081608 -1.217282 -0.746147 0.367939 0.513124 -0.087350 0.371540 -0.072578 0.543671 0.566566 0.471613 -0.013918 0.049662 -0.150321 -0.299516 -0.845821 -0.596312 0.655327 2.376758 1.117955 -0.834439 0.517035 -1.575956 0.529378 -1.834911 -1.810502 0.169223 -0.305731 -0.351433 -0.167111 0.800025 -0.476326 0.803011 -0.348432 1.037231 0.474297 -0.701659 1.414681 0.402077 -0.571579 0.726439 0.630183 -0.877631 0.258774 0.441692 -0.715445 -0.202342 1.625470 0.105429 
Linked_data 1.553080 -0.060683 1.334465 1.617231 -0.168867 -1.207835 -0.067588 -0.037802 1.152191 1.357360 -0.269477 0.582095 -1.276376 -0.143262 -0.204596 0.700926 0.089933 -0.384523 0.691329 2.114559 -0.487452 0.275423 0.329143 -0.840256 0.081241 -1.150499 -1.652409 0.663282 0.218869 0.272932 -0.154972 -0.503991 -1.620047 -0.456733 -1.252144 -0.811148 0.692883 0.495745 2.022473 -0.471158 0.635436 0.906847 -0.201340 -0.610772 -1.985798 0.150293 1.337737 1.592041 -1.239571 0.265385 
Web_Ontology_Language 0.850025 0.622512 -0.875567 -1.345273 1.297375 1.492543 0.657580 0.184972 -2.178957 -0.543598 0.465479 -1.676751 0.223560 -0.153071 0.397555 0.146615 1.444574 -1.328187 0.718544 1.458824 0.194076 0.172080 0.347479 -1.982236 -0.406242 -0.668479 -1.110596 -1.555064 0.250345 -2.015769 0.583977 1.544379 0.192660 -1.237332 0.397460 2.849810 0.962205 -0.283622 -0.196731 0.125252 -1.499497 -0.175095 -0.994351 1.849995 2.334139 0.531964 0.201730 -0.558185 0.320140 0.761512 
World_Wide_Web 0.346586 0.045170 -0.186808 0.350976 1.061837 1.141592 0.518603 0.214062 -0.513298 0.987862 -0.207255 0.827822 -1.054680 -0.151204 0.026593 -0.491747 -0.769813 -0.800316 0.459165 3.197944 0.639270 -0.765429 0.451674 -1.853650 0.430704 -2.950806 -1.013733 -0.822407 0.338795 -0.724256 -0.292479 0.940446 -0.371886 -0.503522 -1.256073 0.582258 0.960124 0.280201 1.530438 0.287461 -1.037740 0.244389 0.252892 -0.121469 0.344774 -0.040180 0.712452 0.579217 0.502957 1.046296 
Resource_Description_Framework 1.361570 -0.814931 0.071227 0.737171 -1.008977 -1.465136 0.054903 1.170142 1.063740 -0.280700 1.232118 -0.971745 -0.145557 1.153597 -1.248077 1.689939 0.821335 -0.543648 0.255945 2.197187 -0.751148 -0.824163 0.093506 -0.269973 0.981005 0.646829 -2.266108 0.383974 0.908343 1.231442 1.371071 -0.580432 -2.099527 -0.619545 0.132636 -0.909001 1.411347 0.315907 1.342503 -0.254933 -0.195553 -0.292197 0.232640 0.018819 -1.573313 1.059302 1.692462 0.920113 -0.524121 0.531810 
Ontology 1.562530 1.011088 -0.146679 -0.515104 1.253500 1.722599 0.779400 -0.392029 -1.373095 -0.524546 -0.111316 -0.574503 -0.503909 -1.082052 0.489145 0.363705 2.141052 -1.335472 0.376485 0.831003 0.070876 0.468219 0.864406 -1.415895 -0.448506 -0.353132 -0.207566 -1.096883 0.193714 -1.772647 -0.304861 0.225408 0.253605 -1.333304 0.016054 1.778623 0.441190 -0.117756 -0.219470 -0.134558 -0.253867 0.224327 -0.853455 1.437602 1.608520 -0.391381 0.438223 0.299968 -1.308511 0.390360 
Algorithm 0.029278 -0.528912 -1.451032 -1.562330 -0.242556 -0.580226 2.219139 0.688555 -0.303425 -0.770301 1.253892 0.577424 0.525064 0.018384 -0.380291 0.147254 1.375902 -1.116138 0.624902 1.367870 0.811955 -0.371637 -0.335813 -1.922938 0.420452 -1.237840 -0.775273 1.522458 0.206044 -1.274933 -0.257423 0.790073 -0.031520 0.664751 0.332546 0.839117 -0.161967 -1.225180 0.994573 1.150516 -0.071241 0.725931 -0.011427 0.136956 3.001793 -0.377683 -1.202999 -1.037808 0.431643 0.018574 
Linked -0.138476 -1.429219 -0.203457 0.277735 -0.928869 -1.259624 -1.685877 0.050577 0.468919 0.913019 0.232073 -0.536400 0.388449 0.734762 -0.681591 0.416168 -0.078499 -0.389924 0.102157 2.756679 0.276249 0.044330 0.320793 -0.248799 0.878242 0.608268 -3.046000 0.733854 -1.178348 -0.480852 0.292282 0.527450 -1.292216 0.844143 0.569444 -0.259375 0.412344 0.142739 1.897533 0.859945 -0.424522 1.782107 0.786171 -0.806280 -0.903324 1.597710 -0.587102 -0.111896 -0.008802 -0.143705 
SPARQL 1.904159 0.455000 0.306193 0.379651 0.935195 2.462223 0.050085 -0.203241 -0.231071 0.165546 -0.963877 0.532455 -1.965401 -0.036135 0.394978 0.623566 1.615989 -1.479680 -0.428899 1.501465 -0.568755 0.978645 1.033822 -1.079802 -0.112769 -1.969353 -0.382007 -0.700305 0.099100 -1.003213 -0.750683 -0.158724 -0.038798 -1.321857 0.315670 0.686929 0.889470 0.451905 0.177739 -0.075177 -0.947906 0.917221 -0.746884 -0.260530 -0.193931 0.575146 0.907350 1.815463 -1.298716 0.303550 
Entity 1.759288 0.787685 0.649998 0.516384 0.945863 1.914367 0.084506 -0.023014 -0.689330 0.213700 -0.871143 -0.711266 -0.882379 -0.463229 0.573462 0.323784 1.771463 -1.352116 0.001475 1.499036 -0.141540 1.178954 1.088858 -1.067818 -0.732134 -0.940119 -0.379759 -0.420654 -0.348891 -1.930390 -0.620267 0.282180 -0.506760 -1.490235 -0.627297 0.642005 0.418014 0.463528 0.491790 -0.282730 -0.226447 1.047457 -1.107334 0.271146 0.102491 0.043948 1.231179 1.361225 -2.172814 0.551183 
Ontology_alignment 1.988297 1.408732 0.778512 -0.298235 1.513737 0.937341 1.342358 -0.360934 -1.185086 -0.534391 -0.696949 -1.448799 -0.176408 -0.597145 0.645854 0.748443 3.322424 -2.270924 0.406073 1.703305 -0.718678 1.481119 0.355672 -1.461095 -1.676947 -0.542642 -0.253596 -0.350599 -0.556987 -3.074978 -0.619217 0.212016 0.337669 -1.514663 0.050256 1.364075 0.152187 0.288019 0.571653 -0.358002 0.221883 1.063768 -1.184673 0.864340 1.524727 -1.213834 0.402285 0.086158 -2.776791 1.356043 
Scalability 1.394130 0.739358 -0.131163 -0.793129 1.624146 2.618622 0.636622 -0.476785 -1.586198 0.119585 -0.845088 -0.537521 -0.916037 -0.121977 0.626749 0.366787 2.237852 -1.460747 0.120636 1.437669 -0.275007 0.917932 1.140961 -1.874481 -0.705787 -1.862709 -0.186643 -1.826104 0.352522 -1.960418 -0.467145 0.746344 0.113888 -1.294600 0.502526 2.107594 1.119694 0.046657 0.086506 -0.221474 -1.417329 0.653389 -0.989453 0.824929 1.702935 0.267922 0.184472 0.354713 -0.712070 0.397389 
Experiment 0.404301 0.101128 -0.501501 -0.712450 1.294143 0.509408 2.180650 0.306299 -0.784164 0.401304 0.407216 0.830587 -0.560876 -0.847328 0.235518 -0.655723 0.032186 -1.035700 0.716154 2.898575 0.960141 -1.279745 0.059750 -2.628643 0.137427 -3.091302 -0.781885 -0.452630 0.544804 -1.048582 -0.538068 1.003143 -0.030516 -0.148579 -1.688733 0.959872 0.888305 -0.144193 1.680889 0.096335 -0.393443 0.178960 0.288733 0.267030 1.656502 -0.596176 0.263481 0.038323 0.278289 1.191307 
Vocabulary 1.740451 0.676918 0.722032 0.700371 0.980651 1.984151 0.042212 -0.242862 -0.553193 0.241217 -0.939469 -0.367801 -1.341233 -0.167435 0.432648 0.461070 1.441029 -1.277073 -0.035053 1.325461 -0.369395 1.289808 0.979425 -1.191791 -0.483537 -1.589589 -0.174561 -0.628420 -0.149400 -1.624441 -0.100455 0.242723 -0.320668 -1.759157 -0.158821 0.877537 0.688134 0.415261 0.070996 -0.731527 -0.872256 0.732185 -0.979827 0.446488 0.017891 0.614020 0.988165 1.650602 -1.610815 0.587460 
Ontologies 1.185513 0.742874 -1.072584 -1.006496 0.984666 1.169158 1.006839 -0.109061 -1.670334 -0.854531 0.715113 -1.569485 0.115327 -0.272144 0.332441 1.071976 2.222085 -1.171209 0.451257 0.906500 -0.234632 -0.394342 0.302771 -1.553004 0.487701 0.327107 -1.034526 -1.637505 0.863501 -1.343987 0.569563 0.813843 0.039335 -1.136118 1.255566 2.438750 0.680814 0.018561 -0.640059 0.538558 -1.493022 -0.105687 -0.535979 1.582240 2.169335 0.481742 0.133049 -0.706175 0.427313 0.304421 
RDF 0.313543 -1.199201 -0.493339 -0.527219 -0.649042 -1.035151 0.081740 1.070622 0.328064 -0.370813 1.000256 -1.401684 0.152662 0.874893 -1.355867 1.522045 0.997508 -0.407690 -0.970829 2.560760 -0.981040 -0.673743 -0.772590 -0.279186 1.366956 0.658897 -2.685350 1.069082 0.058881 0.409889 1.284527 -0.371114 -1.747582 0.618526 0.774880 -0.628703 1.057771 0.290982 1.979147 0.773021 -0.697481 -0.044522 1.012457 -0.473646 -0.595561 1.463775 0.707116 0.488328 -0.050233 0.562133 
Knowledge 0.253525 -0.756784 -0.956819 -0.289149 -0.272896 0.151798 -1.475639 0.197585 -0.735825 0.438191 0.518950 -1.438759 0.589586 0.196699 -0.142262 0.330962 0.337085 -0.261464 0.329393 0.836061 0.240584 -0.123106 0.829635 -0.692120 0.275988 1.043868 -2.450030 -0.563361 -0.617417 -0.962888 0.050847 0.761558 -0.662775 0.487394 0.768726 1.772861 0.353280 -0.393432 0.464373 0.559094 -1.075425 1.278535 -0.048689 0.152634 -0.198679 1.561700 -0.947280 -0.965565 1.198569 -0.327118 
Knowledge_base 1.188849 0.303132 0.393043 0.578130 1.194182 0.930188 1.799472 -0.031854 -0.153991 0.921957 0.231523 0.568940 -1.221794 -0.703067 0.105724 -0.371612 0.188914 -1.284837 0.782825 3.272754 0.416496 -1.052422 0.318302 -2.093102 0.297614 -2.922440 -0.740705 -0.290682 0.689326 -0.635504 0.377367 0.398946 -0.806861 -1.454680 -1.652849 0.644207 1.470123 0.162756 1.247506 -0.419368 -0.167583 -0.144756 -0.539137 0.531177 -0.065727 -0.312742 1.395636 1.455218 -0.149607 1.504778 
Requirement -0.089883 -1.687388 -1.319607 -1.508567 -0.946775 0.090423 0.314301 0.511347 0.462893 -1.516581 0.961058 1.301651 -0.152297 0.281588 -1.277692 0.981300 0.486333 -1.372422 0.221073 0.091471 0.420479 0.270124 -0.347057 -1.245823 0.214154 -1.048797 -0.079739 2.253342 0.081017 -0.661567 -0.343041 0.217698 -0.099037 0.316489 1.107752 0.227978 -0.086990 -1.695340 0.981858 0.890834 -0.304324 1.081260 0.534085 -0.152615 1.881156 0.367877 -1.614641 -0.092222 0.379920 -0.751867 
Interoperability 0.076622 -0.600854 -0.917818 -0.929329 -0.324511 0.117577 -0.510470 -0.187682 -0.872960 -0.471810 0.784880 -1.513765 1.051967 0.172509 -0.301306 0.972092 1.274449 -1.069217 0.312135 0.660147 -0.236587 0.484063 0.078889 -0.621575 0.018047 1.106742 -1.604758 0.101288 -0.235895 -1.339104 0.165445 0.273421 -0.221504 0.238644 1.314596 1.510964 0.069396 -0.651449 0.424620 0.716772 -0.375159 0.830137 0.094554 0.217404 1.018678 0.629820 -1.050878 -0.968646 0.289986 -0.198775 
Database 1.233564 -0.900044 0.942618 0.936045 -0.728705 -2.747538 -0.754882 0.017667 1.131104 0.179214 1.097444 -0.667720 -0.568862 -0.004105 -0.427854 1.830839 0.126418 -0.429441 0.627277 1.526576 -0.576324 0.204367 -0.351557 -0.326636 0.417058 0.740390 -2.407761 0.819506 0.082606 1.340910 0.659993 -0.673828 -1.600988 0.128151 -0.660073 -1.142244 0.711386 -0.040417 1.526468 -0.384827 0.363123 0.664717 0.624505 -0.287042 -2.043573 1.060101 1.098886 0.511919 -0.452864 0.356961 
Prototype 1.264220 0.562336 0.029369 -0.068486 1.147723 2.660381 -0.071000 -0.547947 -1.234906 0.062467 -0.690485 -0.112168 -1.570312 -0.089685 0.544283 0.258981 0.952298 -1.189922 0.193152 1.153538 -0.292383 0.842662 1.093993 -1.498545 -0.680415 -1.856754 0.041379 -1.612012 0.319332 -1.335193 -0.348073 0.722773 0.008384 -1.520704 0.228720 1.715379 0.940011 0.219235 0.069281 -0.412716 -1.307076 0.461408 -0.672365 0.817182 0.469533 0.590965 0.598952 1.023701 -0.540066 0.168563 
Institute -0.981736 -1.070052 0.114559 -1.194550 1.692718 -0.562160 -1.352670 -1.943889 -2.151179 0.092642 1.985322 0.284957 -2.125967 -1.843137 0.371255 2.677946 -1.354656 1.484273 2.102812 -2.397997 0.070651 2.772149 1.607968 -1.947246 -1.431656 -0.358256 -1.198721 -1.210035 0.853375 0.347278 0.385710 -0.030944 -1.960205 1.115602 -2.380444 0.524198 1.506964 -0.978424 2.102373 -2.343091 -0.694214 1.029860 0.973616 0.276580 -0.012683 3.365758 -0.701375 -0.539658 0.465898 -2.834272 
Technology -0.622521 -1.155928 0.098228 -0.913824 1.117106 -0.894139 -1.572170 -1.384258 -1.700593 -0.019753 1.720475 -0.164001 -1.793614 -1.394340 0.107075 2.432150 -1.262223 1.215292 1.581948 -1.799384 -0.187021 2.390453 1.231633 -1.418168 -1.139676 0.242566 -1.625210 -1.010683 0.752246 0.389291 0.443641 -0.124643 -1.988345 1.022307 -1.942102 0.211948 1.378312 -0.641318 1.866849 -1.773914 -0.548942 0.795040 0.798994 0.316320 -0.622950 3.071601 -0.417682 -0.479972 0.394759 -2.400064 
Description_logic 1.205393 0.112858 -1.611653 -1.436103 -0.198021 0.245115 1.419782 0.522107 -1.020271 -1.077030 1.293924 -1.910570 1.048377 0.205970 -0.253575 1.105085 2.825116 -1.996928 0.434916 1.512366 -0.185371 -0.195997 -0.250989 -1.388708 0.409827 0.954136 -1.714070 -0.234062 0.534017 -1.512176 0.545529 0.283237 -0.069861 -0.610188 1.615810 2.438990 0.506646 -0.705737 -0.597994 1.017429 -0.870298 0.026363 -0.792524 1.670589 2.370373 0.341420 -0.237804 -0.912210 0.419373 0.695407 
Benchmark_computing 1.530218 1.056129 1.578934 0.458561 1.687848 -1.023825 1.933377 0.074857 -0.503144 0.525703 -0.034646 0.069038 -0.792713 -1.368004 0.391181 0.457599 1.036458 -1.088355 0.680505 3.108798 -0.048873 -0.009189 -0.232412 -2.168707 -1.015026 -1.811131 -0.675916 -0.139427 -0.009883 -0.957050 -0.310788 -0.135207 -0.788307 -0.485684 -2.533746 -0.534157 0.574832 0.413380 1.878277 -1.013870 1.310737 0.159390 -0.182956 0.254417 0.127074 -1.293683 1.165282 0.573853 -2.251801 1.961754 
Reasoning 1.515467 -1.032631 -0.963453 -0.950232 -0.820282 -0.058939 0.427756 0.483538 0.871109 -1.809004 1.104508 1.367871 -0.723294 0.419969 -0.948900 1.232709 1.496424 -2.025786 -0.004312 -0.047026 -0.169710 0.045534 -0.377703 -1.103284 0.656622 -0.942690 0.511188 1.855527 0.960036 0.166302 0.604706 -0.178370 -0.265596 -1.134453 1.590596 0.360537 0.027792 -1.057997 -0.181514 0.523430 -0.988823 0.019182 -0.014411 0.936060 1.381519 0.479813 -0.245533 0.826047 0.544976 -0.084323 
DBpedia -0.098321 -0.047152 -1.024267 -0.417219 0.934219 1.839643 -0.440573 0.449815 -1.608624 1.203312 -0.473999 -1.805867 0.737053 0.315905 0.203550 -0.692887 0.550974 -0.706530 0.079694 2.903636 0.507949 -0.073546 1.209215 -1.634281 0.330275 -0.680659 -2.586313 -1.495073 -0.989387 -2.353521 0.085171 1.553616 -0.627980 -0.205240 -0.157429 1.624458 1.108336 0.805639 1.470918 0.537008 -1.518227 1.583201 -0.136243 -0.296498 0.489958 1.352423 0.114326 -0.641929 -0.146911 0.414082 
Web_application -0.026555 -0.994993 -0.816895 -0.470258 -0.691085 0.008705 -1.566721 0.461896 -0.609013 0.225588 0.112173 -1.686346 0.995863 0.467270 -0.392525 0.540697 0.254036 -0.918541 0.199335 2.083324 0.224748 0.366653 0.582368 -0.442711 -0.236668 1.315157 -2.609981 0.290060 -0.834809 -1.393196 -0.114149 0.614568 -0.911953 0.650238 0.849822 1.121563 0.142597 -0.405843 1.217133 0.986969 -0.419477 1.252761 -0.021727 -0.112620 -0.329391 1.079062 -0.631432 -0.622436 0.155639 -0.010457 
Sensor 2.374934 0.384641 1.173790 0.848229 0.078717 1.121426 -0.469055 -0.960620 0.483236 0.116260 -0.595947 1.296763 -2.396244 -0.465667 0.545192 1.443945 1.490911 -1.143045 0.352196 0.277423 -0.616364 2.072336 1.002977 -1.013123 -0.912248 -1.721235 0.085425 -0.048523 0.172984 -0.303297 -0.821959 -0.658538 -0.379622 -1.569661 0.214664 0.256176 0.208372 0.007307 -0.147953 -0.943528 -0.236164 1.218113 -0.648221 0.135918 -0.829150 0.379901 0.897584 1.791260 -1.601621 -0.233031 
Approach 1.540126 -1.181357 -0.516004 -0.458213 -1.185431 -0.382133 0.620036 0.229450 1.061358 -1.728857 1.029970 0.909398 -0.813201 0.229734 -0.792240 1.617912 1.252295 -1.747487 0.131231 -0.198948 -0.564121 0.420660 -0.611002 -0.831010 0.504371 -0.567966 0.015335 1.738907 0.854717 0.392750 -0.053861 -0.349865 -0.247761 -0.893045 1.448338 0.135084 0.039217 -1.143175 -0.172427 0.429610 -0.703736 0.641828 -0.003454 0.433247 0.776707 0.270101 -0.010035 0.548160 -0.012717 -0.194027 
Computation 1.286193 -1.400932 -0.504588 -1.465428 -1.258541 -0.703558 1.267470 0.691707 1.133832 -2.117032 1.256204 1.458392 -0.778224 0.363008 -1.142853 2.228029 2.042622 -1.287834 -0.141314 -0.569908 -0.613079 1.272386 -0.243906 -1.307913 0.428743 -0.768135 0.391958 2.975410 0.478732 -0.048107 0.201377 -0.479024 -0.717632 -0.263601 1.517558 -1.041183 -0.096209 -1.527209 0.544002 0.301082 -0.050120 1.054855 0.183402 -0.198114 1.620519 0.217983 -0.203155 0.442354 -0.927370 -0.867359 
Semiconductor_industry 0.783130 -0.828992 0.248434 -0.070175 -0.809350 -2.072891 0.206780 0.669143 0.296010 -0.650338 1.636941 -2.055927 0.429259 0.596578 -1.216933 2.079848 1.015174 -0.677846 0.246593 1.882278 -0.927977 -0.118909 -0.607595 -0.301128 0.417242 1.614515 -2.473050 0.954434 0.374094 0.311462 1.363544 -0.766971 -1.941068 0.033588 0.033624 -0.791415 0.868497 0.012603 1.848345 -0.096930 0.575884 -0.051927 0.469652 0.119704 -0.974911 0.667250 1.078759 -0.102912 -0.941035 0.722401 
United -0.499665 -1.339789 0.376171 -1.085770 1.240525 -1.229367 -1.037355 -1.657902 -1.530266 -0.281484 2.238113 0.581127 -2.315090 -1.694095 0.020693 3.097871 -1.059465 1.274041 1.969515 -2.325541 -0.198670 2.883359 1.318663 -1.883900 -1.425324 -0.404625 -1.154033 -0.438327 1.012388 0.707185 0.549433 -0.533177 -2.318966 0.888802 -2.415322 -0.258321 1.354343 -0.990260 2.235170 -2.377170 -0.287521 0.990642 0.974894 0.101456 -0.358556 3.139186 -0.402903 -0.198035 0.091150 -2.690097 
2014 1.263544 0.187642 0.643342 0.791259 -0.004802 0.286165 -0.018195 -0.052342 0.496623 0.219162 -0.415514 0.060136 -0.650641 0.041739 -0.016808 0.218290 0.678772 -1.154642 0.201816 1.797540 -0.179420 0.176420 0.158900 -0.515339 -0.035344 -0.894123 -0.475544 0.249122 -0.330129 -0.484129 -0.261880 -0.069562 -0.199013 -0.931632 0.047585 0.125417 0.252953 0.225678 0.304057 -0.018107 -0.142632 0.544719 -0.336532 -0.059833 -0.626961 -0.111357 0.466853 0.976804 -0.919223 0.833346 
Framework 1.695835 0.040562 0.901723 1.145754 -0.087234 -0.650157 0.620994 -0.501194 0.832515 0.785070 0.655034 -0.099994 -1.278749 -0.524904 -0.050868 0.442913 0.283781 -1.214403 0.815504 2.380229 -0.358809 -0.456587 -0.092547 -0.713017 0.307510 -1.036355 -1.309122 0.391901 0.624336 0.399581 0.157595 -0.542989 -0.777162 -1.037521 -0.796673 0.368756 0.852543 -0.106074 0.717257 -0.311363 0.205731 0.192140 -0.223701 0.359560 -1.456164 -0.079789 1.217218 1.320212 -0.221228 1.095891 
OAEI 0.525137 -0.143380 0.252367 -1.481681 -0.194010 -1.579639 1.141273 0.940737 -1.394421 -1.400000 1.254104 -3.294853 2.008288 -0.107642 -0.612842 2.436789 3.460704 -1.516217 0.286317 1.783650 -0.860320 1.551711 -0.195277 -0.669958 -1.174352 2.566695 -2.073406 1.322627 -1.133736 -2.737028 0.630312 -0.533197 -1.408810 0.404072 0.352858 -0.240039 -0.415901 -0.209047 1.935393 0.406685 1.951518 1.031944 -0.334731 0.348914 1.501468 -0.303203 0.027876 -1.286252 -2.529641 0.634352 
Query 1.025702 0.279063 -0.521968 -0.166554 1.043224 2.480330 0.111944 0.476956 -1.188888 0.631444 -0.738441 -0.403984 -0.872713 0.369298 0.263090 0.069517 1.123870 -1.213101 -0.318198 2.614122 0.050134 0.268321 1.081294 -1.565719 0.168767 -1.721072 -0.955139 -1.439130 -0.067519 -1.825211 -0.084433 0.999109 -0.202340 -1.027624 0.543700 1.425062 1.090265 0.475757 0.376724 0.202044 -1.666135 0.553652 -0.558639 0.377926 0.415789 0.964461 0.686393 1.018772 -0.477653 0.698759 
OWL 0.761776 0.357938 -0.614996 -0.167734 1.335469 0.732808 2.446105 0.235647 -0.665961 0.294942 0.559899 0.344416 -0.765882 -1.208132 0.193996 -0.200298 0.857560 -1.472086 0.701750 2.656835 0.456475 -1.371250 0.004299 -2.087919 0.390088 -2.049404 -0.554343 -0.923200 1.403718 -0.633762 -0.045438 0.536960 -0.250877 -0.910938 -1.319491 1.407834 1.252555 -0.143855 0.669463 -0.199814 -0.466760 -0.660294 -0.084572 1.284255 0.985631 -0.331348 0.996243 0.473484 0.414572 1.357878 
Web_search_engine 0.625755 -1.521446 -0.399433 -1.091352 -1.239846 -0.442338 0.468911 0.498723 1.059349 -1.720386 1.168014 1.035160 -0.681166 0.617128 -1.459615 1.757210 0.743339 -0.833737 -0.180418 0.282983 -0.304798 0.360321 -0.305384 -1.100669 1.076710 -1.048976 -0.168073 2.731301 0.339705 -0.014829 0.212492 -0.043417 -1.053138 -0.397106 1.299468 -1.324024 0.026910 -0.872294 1.010721 0.724107 -0.473344 0.956735 0.631742 -0.720629 1.062952 0.427851 -0.353139 0.401331 -0.046668 -0.606526 
Semantic_reasoner 0.723835 -0.824272 -1.479136 -0.833557 -0.494298 -0.561067 0.018303 0.281140 -0.582258 -0.488008 0.880791 -1.400964 1.161415 0.035934 -0.184050 0.912336 2.461562 -1.810228 -0.022866 1.659835 0.108473 0.094189 -0.226125 -0.982093 0.407480 1.470823 -2.275351 0.101773 -0.269530 -1.790066 -0.316329 0.224955 -0.275227 0.464377 1.272915 2.043140 0.251332 -0.563900 0.106721 1.206167 -0.659783 1.128028 -0.345114 0.767797 1.231406 0.663737 -1.028770 -1.069265 0.299525 0.562458 
Information_retrieval 1.525316 -0.366935 1.126887 0.911258 -0.432285 -1.522563 0.271831 -0.005823 0.567530 0.036769 1.043355 -1.194949 -0.805898 -0.153359 -0.499352 1.664358 0.380364 -0.837345 0.503297 1.844476 -1.017336 -0.254727 -0.604304 -0.362297 0.139251 0.363132 -1.531082 0.810640 0.725224 0.826944 0.871337 -0.870786 -1.665938 -0.930400 -0.689707 -0.608585 0.948316 0.080195 1.233193 -0.502671 0.501777 -0.240075 0.118588 0.235916 -1.709217 0.291902 1.672229 0.949669 -0.701370 1.070397 
2015 1.417837 0.212124 0.564352 0.730733 -0.009656 0.276303 0.324460 -0.072032 0.671609 0.302687 -0.412675 0.086226 -0.565857 0.000168 0.068880 0.028315 0.959848 -1.316401 0.167504 1.967567 -0.128752 0.128247 0.118446 -0.563731 -0.003344 -1.066332 -0.538497 0.362948 -0.406572 -0.591601 -0.391838 -0.162356 -0.075285 -0.854849 0.105079 0.284705 0.247127 0.143210 0.177567 0.108008 -0.014776 0.687223 -0.434958 -0.153795 -0.527947 -0.370530 0.331159 0.945622 -0.835969 0.948105 
Science -0.952704 -0.099410 -0.314729 -0.918236 1.754012 0.865192 -1.111642 -1.434328 -2.305645 0.475186 0.759610 -0.090876 -1.371257 -1.054943 0.653351 1.147471 -0.802381 1.217610 1.277542 -1.614763 0.128111 1.946399 1.590038 -1.415634 -1.041619 -0.485001 -0.688461 -2.133676 0.534167 -0.453472 0.150181 0.627481 -0.813536 0.549566 -1.364558 1.294694 1.190742 -0.283047 0.940825 -1.428512 -1.154275 0.511683 0.280186 0.488687 0.521911 2.314490 -0.640416 -0.652066 0.641256 -2.014604 
Web_service 0.151282 -1.477627 -0.782645 -0.161250 -1.034228 -0.976977 -1.519238 0.905056 0.214151 -0.643847 0.506113 -0.815094 0.555317 0.541818 -1.356838 1.241386 -0.237887 -1.190495 0.424603 1.668579 0.008803 -0.125751 -0.240055 -0.276839 -0.084036 1.409169 -1.817042 1.124657 0.057464 -0.219321 0.306658 -0.137680 -1.105644 0.330873 0.657519 0.289368 0.029755 -0.596652 1.717718 0.710929 -0.105688 0.825677 0.422084 0.253016 -0.544197 0.676418 -0.301045 0.078385 0.045707 0.110837 
Data_model 0.034096 -1.853692 -1.335389 -1.247530 -1.044879 -0.556222 0.180899 0.981384 0.963572 -1.061665 1.129298 1.111853 0.063595 0.956822 -1.401989 1.033248 0.585031 -1.296304 -0.096757 1.290901 0.460560 0.096368 -0.174798 -1.050682 0.932803 -1.009655 -1.102124 2.307550 0.011737 -0.089496 0.258989 -0.136812 -0.861242 0.550134 1.042385 -0.258954 0.106991 -1.135151 1.387114 0.791254 -0.480158 0.764565 0.637685 -0.697010 0.951875 0.879969 -1.137635 0.405900 0.698353 -0.527077 
Opensource_software 0.069551 -0.001733 0.170738 0.119271 1.338725 0.907071 1.253204 -0.365297 -0.725146 1.266808 0.549482 0.817044 -1.303738 -0.625299 0.028079 -0.640518 -1.180404 -0.394568 1.092269 2.654632 0.759625 -0.909006 0.429598 -2.037327 0.051038 -2.987582 -0.730562 -0.782028 0.898617 -0.185132 0.248373 0.772243 -0.810324 -0.691054 -2.209368 0.548290 1.539106 0.051019 1.854070 -0.536649 -0.274003 -0.310968 0.218383 0.375241 0.033774 0.122096 0.958989 0.938057 0.670045 0.777189 
2013 1.586441 0.310783 0.505543 0.737068 0.001577 0.420287 0.490220 0.086016 0.613521 0.122980 -0.289525 0.092767 -0.800064 0.101600 0.004582 0.228825 1.062107 -1.241345 0.051725 1.933654 -0.337698 -0.178025 0.013180 -0.582336 0.315588 -1.075242 -0.381293 0.187939 0.098265 -0.244912 -0.120037 -0.157260 -0.202454 -1.123904 0.224302 0.233064 0.447593 0.212187 -0.009406 0.049688 -0.276904 0.209611 -0.407225 0.103575 -0.466666 -0.224751 0.811404 1.118585 -0.708364 0.963900 
Systems -1.046762 -1.084680 -0.956514 -1.416562 -0.020110 -0.656090 -0.035153 -0.485860 -0.600470 -0.294867 1.321472 0.798266 -0.164718 -0.424347 -0.304581 0.725790 -0.640349 0.322408 0.813283 -0.781171 0.593314 0.603477 0.334922 -1.046320 -0.024702 -0.521801 -0.727146 0.491098 0.169868 -0.164358 -0.156745 0.281004 -0.354851 1.245370 -0.364352 0.376780 0.132255 -1.107832 0.928369 0.065145 -0.273593 0.705565 0.752032 -0.273805 1.180110 0.999684 -1.538408 -0.904666 1.088513 -1.395008 
Semantic_Web_service 1.432114 -0.278587 0.989680 1.027915 -0.277906 -0.556159 0.008194 -0.566417 0.682030 -0.272985 0.899703 0.462595 -1.687234 -0.517891 -0.373704 0.995180 -0.617292 -0.890429 0.959538 0.754250 -0.623361 0.245545 -0.558560 -0.421859 -0.426574 -0.693651 0.014040 0.845994 1.112962 0.967600 0.480175 -1.041446 -0.827350 -1.267123 -0.888331 -0.392987 0.635520 -0.555919 0.733633 -0.956449 0.435304 -0.231011 0.113338 0.468421 -1.258790 -0.016920 1.038756 1.387133 -0.514488 0.602055 
Services -0.335870 -1.441210 -0.862486 -0.898611 -0.917710 -0.301657 -0.517583 -0.075735 0.261019 -0.799211 0.863225 0.910683 -0.240008 0.331984 -1.088797 0.482107 -0.663301 -1.277116 0.533922 0.611044 0.642925 0.097767 -0.334784 -0.778686 -0.013205 -0.626107 -0.371589 1.521133 0.396521 -0.287894 0.175442 0.127242 -0.367577 -0.082875 0.570386 0.393784 -0.059388 -1.344228 1.024830 0.611489 -0.374261 0.445466 0.669063 0.198409 1.001292 0.460486 -0.964730 0.164545 0.879832 -0.253770 
User_interface 2.260465 1.114161 0.823138 0.366336 1.395855 2.455966 0.074020 -0.991094 -1.132608 -0.086766 -0.588070 -0.420141 -1.922408 -0.465361 0.810748 1.199454 2.113319 -1.393517 0.349886 0.596395 -0.710848 1.932938 1.265763 -1.382672 -1.103486 -1.442046 0.079864 -1.225350 0.207934 -1.666650 -0.404237 -0.171585 -0.218695 -2.034143 0.031815 1.391848 0.852618 0.274937 -0.225271 -0.937297 -0.841977 0.747951 -1.123697 0.731814 0.385795 0.455716 0.898940 1.352767 -1.686216 0.271740 
Web_page 2.512101 0.213210 0.951855 0.751705 0.179966 1.522736 -0.143641 -0.715422 0.201809 -0.490695 -0.359287 0.281159 -2.097893 -0.005321 0.264946 1.541448 1.731530 -1.449217 0.133369 0.409043 -0.837945 1.729643 0.774147 -0.815855 -0.576452 -1.290015 0.193852 0.157866 0.335798 -0.601620 -0.372057 -0.700180 -0.454486 -1.888018 0.473029 0.381734 0.566464 0.051797 -0.243444 -0.644373 -0.556909 0.963882 -0.816136 0.149765 -0.550420 0.435201 0.928141 1.860146 -1.577356 0.098895 
Wikipedia 0.238165 0.122119 -0.852409 -0.782305 0.604957 1.035062 0.015504 0.610273 -1.422326 0.296429 0.020832 -1.961820 0.894347 0.671053 -0.012693 0.012264 1.531368 -0.837679 -0.150867 2.777539 0.056664 -0.259239 0.795906 -1.319679 0.412528 -0.118436 -2.334240 -0.919155 -0.600171 -1.974306 0.120241 1.125998 -0.654909 -0.053807 0.451306 1.514365 0.890414 0.371389 1.021468 1.085590 -1.248220 1.047746 -0.496956 0.013091 1.084216 0.508776 0.035059 -0.915858 0.156669 0.404482 
Usability 2.316889 -0.017386 0.791842 0.804151 -0.134390 0.608120 0.013962 -0.485007 0.878365 -0.648359 0.078605 0.735706 -1.799801 -0.171603 0.168628 1.524215 1.451779 -1.310598 0.278836 0.039914 -0.610499 1.456105 0.405696 -0.721788 -0.233721 -1.252673 0.343917 0.803975 0.458869 0.064876 -0.055064 -0.853565 -0.665169 -1.790400 0.228355 -0.145813 0.342465 -0.249924 -0.269164 -0.796727 -0.216161 0.671619 -0.743912 0.108399 -0.529647 0.474597 0.888586 1.964897 -1.261505 -0.052103 
Interaction -0.084118 -0.008695 -0.615414 -0.493793 1.056029 1.085424 1.262387 -0.011073 -0.918747 0.237226 0.322263 1.208394 -0.892143 -0.582698 0.090394 -0.527096 -0.542856 -0.783943 0.725360 1.722009 0.926225 -0.619574 0.193237 -2.184045 -0.055587 -2.781393 -0.244904 -0.520748 0.575496 -0.988226 -0.455413 1.122577 -0.140734 -0.391140 -1.226358 1.013190 0.828369 -0.456317 1.359327 0.071072 -0.795908 0.195779 0.341339 0.499564 1.662205 0.009858 -0.112019 0.100036 0.704511 0.351021 
Service -0.825183 -1.044101 -1.498580 -0.908005 0.070584 0.862514 0.069877 0.105999 -0.929497 -0.168144 0.807002 0.671194 -0.197849 0.175364 -0.522060 -0.243600 -1.229998 -1.012005 0.736744 1.330350 0.799352 -0.636553 -0.164227 -1.543297 0.073591 -1.552449 -0.650656 -0.224851 0.917586 -0.539517 0.218992 1.163293 -0.269818 -0.208220 -0.068134 1.430559 0.646631 -0.882359 1.271398 0.482679 -1.199680 0.146184 0.698033 0.677912 1.542061 0.690723 -0.529510 -0.185694 1.751359 -0.025373 
Management -1.049885 -0.890656 -1.445042 -0.885650 0.223980 0.067109 -0.130184 -0.397939 -0.584013 0.375872 1.001890 0.648622 -0.056321 -0.086622 -0.215148 0.025010 -0.885055 0.019174 0.738428 0.237829 0.757960 -0.180620 0.246104 -1.177527 0.526237 -1.041669 -1.219118 -0.457352 0.562706 -0.169823 0.108900 0.808270 -0.560739 0.607688 -0.235747 1.035191 0.723892 -0.816113 0.832735 0.348687 -1.136779 0.292582 0.542097 0.324223 1.142338 1.263857 -0.966522 -0.675000 1.924603 -0.951616 
XML 1.002886 -1.392704 -0.481664 -0.542004 -1.052306 -0.704779 0.093157 0.748700 1.195390 -1.723160 1.207621 0.603202 -0.617350 0.878942 -1.285694 1.998844 0.984583 -1.319672 -0.195829 0.332899 -0.492700 0.431850 -0.566261 -0.619752 0.805518 -0.535915 -0.218820 2.094349 0.970079 0.769436 0.918650 -0.858616 -1.275236 -0.774324 0.993223 -0.846161 0.432775 -0.865285 0.634220 0.079298 -0.544654 0.008308 0.440149 0.091985 0.332144 0.858723 0.386216 1.152623 -0.068470 -0.173138 
Technologies -1.099769 -1.629847 -1.223906 -1.346979 -0.514035 -0.291438 -0.796572 -0.353790 -0.381422 -0.244842 1.127704 1.196444 -0.373373 0.061326 -0.502095 0.734069 -1.035469 0.131472 0.723535 -0.674574 0.769643 0.682916 0.518284 -1.057926 0.070959 -0.895962 -0.867083 0.679715 0.180243 -0.212752 -0.131843 0.606569 -0.643665 0.987274 0.228381 0.514503 0.176880 -1.273607 1.057816 0.331293 -0.756990 1.047210 0.673687 -0.128730 1.042345 1.580735 -1.597876 -0.568554 1.554295 -1.614999 
Machine_learning 1.060779 0.554124 0.737429 0.603564 1.002754 0.160773 1.146334 -0.141801 -0.336350 0.787650 0.253696 -0.269618 -0.853424 -0.779332 0.141789 -0.179923 0.071967 -0.795478 0.820190 2.479942 0.065131 -0.699888 0.153719 -1.320053 -0.278212 -1.540131 -0.759867 -0.369332 0.335473 -0.527327 0.069887 0.212686 -0.630003 -0.962226 -1.706189 0.354537 0.947654 0.266159 1.203985 -0.392144 0.266212 -0.139735 -0.214016 0.481690 -0.464336 -0.565885 1.252990 0.780010 -0.569682 1.376127 
Triplestore 2.255682 -0.695271 0.778599 0.516026 -0.675377 -0.274956 -0.239601 0.048607 1.362298 -0.933664 0.427759 0.825772 -1.891805 0.239033 -0.420534 2.246084 1.336812 -1.091436 -0.080630 0.034188 -1.150429 1.462386 0.007893 -0.496818 0.174897 -0.907399 -0.189438 1.459345 0.608112 0.868862 0.480354 -1.197805 -1.308708 -1.222148 0.462071 -0.990835 0.547356 -0.285597 0.373733 -0.793172 -0.398905 0.478532 -0.214280 -0.150084 -0.964224 1.176361 1.080258 1.953805 -1.144645 -0.293359 
RDF_Schema -0.192541 -1.451823 -1.743052 -1.490410 -0.675670 -0.307077 0.759128 1.134975 0.324851 -0.949017 1.404678 0.584753 0.537789 1.004988 -1.288420 0.840522 0.973428 -1.077551 -0.061594 1.219933 0.522819 -0.481813 -0.225334 -1.275414 1.138168 -0.812272 -1.099498 1.351457 0.602040 -0.506676 0.690054 0.183714 -0.862432 0.417360 0.883042 0.216100 0.462004 -0.939457 1.026706 0.834330 -0.746945 0.093827 0.487191 0.047810 1.771443 0.708532 -0.830591 -0.129901 0.896103 -0.227153 
Relevance 0.138596 -0.645100 -0.649134 -0.836560 -0.300237 -0.502498 -0.665299 0.287180 -0.830232 -0.373684 0.884599 -2.110736 0.998423 0.448048 -0.520401 1.198710 1.288393 -0.607763 -0.092221 1.392611 -0.441986 0.304061 0.053181 -0.393451 0.180139 1.520733 -2.327317 0.061986 -0.552306 -1.056842 0.375504 0.141545 -0.939494 0.685195 0.927090 0.737074 0.356239 -0.036113 0.950270 0.677863 -0.297224 0.799305 0.186102 -0.190562 0.249331 1.018263 -0.565087 -0.920275 -0.179211 0.022382 
Programming_paradigm -0.281449 -1.489514 -1.613422 -0.968650 -0.702396 -0.264533 0.234993 0.566564 0.261219 -0.374983 0.967572 0.790219 0.330972 0.651568 -1.039769 0.343742 0.324504 -1.275378 0.286801 1.702858 0.735671 -0.319873 -0.163631 -1.296965 0.812474 -0.933565 -1.402341 1.194647 0.164961 -0.685509 -0.006159 0.383366 -0.637526 0.465916 0.711351 0.589043 0.238475 -0.939806 1.363007 1.066755 -0.740963 0.787292 0.592823 -0.189516 1.381237 0.654643 -1.168748 -0.163236 0.949606 -0.286722 
Engineering -0.767651 -1.111106 -0.364822 -1.100833 0.151827 -0.770695 -1.248341 -0.880939 -1.109088 -0.361203 1.361768 -0.446586 -0.449125 -0.501672 -0.262892 1.737138 -0.460122 0.536763 0.873915 -1.308244 -0.077138 1.547806 0.707980 -0.622346 -0.605424 0.866815 -1.251151 -0.105286 0.092782 -0.035914 0.328739 -0.020964 -1.020734 1.017932 -0.273389 0.321311 0.510961 -0.797923 1.137936 -0.570950 -0.270204 0.757627 0.595857 0.096756 0.175229 2.047129 -1.027639 -0.863554 0.498899 -1.722339 
2008 1.373949 0.272544 0.267928 0.499904 -0.043052 0.481007 0.306082 -0.132903 0.213518 -0.116592 -0.132565 -0.288971 -0.494445 -0.031318 0.081154 0.258479 1.068042 -1.234861 0.216982 1.071820 -0.368815 0.110716 -0.026577 -0.437916 -0.016806 -0.442907 -0.187085 0.114119 0.154093 -0.540108 -0.107819 -0.095262 0.057879 -1.158076 0.386695 0.754342 0.295662 0.004752 -0.290766 0.065977 -0.277418 0.229038 -0.649162 0.500666 -0.034348 -0.196637 0.486801 0.784751 -0.536723 0.752829 
Semantics 0.631242 -1.032100 -0.119228 0.004888 -0.834669 -1.516552 -0.856141 0.452773 0.412856 -0.490376 0.698564 -1.030094 0.369958 0.285337 -0.830095 1.278394 0.581362 -0.837425 0.080361 1.550835 -0.360460 0.052453 -0.352183 -0.303669 0.342518 1.163625 -2.096635 1.083848 -0.239329 -0.014081 0.400154 -0.250443 -1.158969 0.251710 0.401673 -0.321815 0.244194 -0.201418 1.245252 0.488635 -0.090228 0.795301 0.455904 -0.258474 -0.684927 0.769118 0.164605 -0.019847 -0.265603 0.349399 
Application_programming_interface -0.816189 -0.776600 -1.264738 -1.001375 0.591614 0.582736 1.400392 0.352799 -0.495474 0.625859 0.807219 1.066736 0.105391 0.019659 -0.529763 -0.541725 -0.539545 -0.677401 0.695767 2.787273 1.233849 -1.114666 0.239806 -2.165186 0.654538 -2.586454 -1.216424 0.226661 0.553662 -0.791524 0.153055 0.983184 -0.709544 0.402130 -0.885467 0.691519 0.899614 -0.524897 1.978926 0.564179 -0.506046 0.192969 0.450948 -0.141205 1.395461 0.181477 -0.397171 -0.127436 1.284217 0.276819 
Center -0.992627 -1.154176 -0.021369 -1.106524 1.296382 -0.662015 -1.208219 -1.607492 -1.844025 -0.038127 1.808352 0.448024 -1.879722 -1.504202 0.107074 2.472197 -1.370461 1.306542 1.882877 -2.221798 0.069856 2.389309 1.244348 -1.729962 -1.302190 -0.355225 -1.007559 -0.947827 0.888042 0.455092 0.414173 -0.137831 -1.872386 1.040482 -2.102931 0.349987 1.245443 -1.021059 1.966399 -1.979803 -0.525233 0.837866 0.899182 0.232414 -0.002930 2.982068 -0.686355 -0.436515 0.507378 -2.587444 
Matching 0.687384 -0.397202 -0.115786 -0.795122 -0.527961 -0.859500 -0.248134 0.461122 -0.487752 -0.471393 0.342104 -1.444918 1.145382 0.189948 -0.570155 0.933528 1.987482 -1.584795 0.194082 1.792993 -0.089499 0.742250 0.130548 -0.630769 -0.508247 1.312441 -1.905082 1.118134 -1.086514 -1.924546 -0.096364 0.095121 -0.552585 0.233219 0.734475 0.493291 -0.290787 -0.470259 1.082647 0.782858 0.629529 1.333307 -0.370557 0.161670 0.803339 -0.093520 -0.587478 -0.716198 -1.302249 0.489165 
Integration 1.019447 0.213790 0.538444 0.706176 0.971478 0.760566 0.664626 -0.460055 -0.062082 0.841283 0.158162 0.958995 -1.700103 -0.760966 0.029003 -0.299903 -0.629067 -0.938670 0.971850 2.104272 0.230208 -0.520561 0.280880 -1.469031 -0.163284 -2.519459 -0.380365 -0.406271 0.715679 0.001520 -0.053606 0.252693 -0.563882 -1.170272 -1.558937 0.623597 1.154274 -0.111856 1.110680 -0.582778 -0.263863 -0.139059 -0.067271 0.503606 -0.584919 -0.038412 1.045908 1.384113 0.047912 0.808375 
Ontology_engineering -0.209291 0.320001 -0.934047 -0.959462 1.164147 0.868068 1.396836 -0.089878 -1.304569 0.118382 0.622261 0.074766 -0.183698 -0.482337 0.211389 -0.429932 0.180033 -0.820574 1.000056 1.802018 0.773382 -0.787347 0.296583 -2.206819 0.218269 -1.915220 -0.921002 -0.984690 0.475436 -1.215412 -0.135817 1.218623 0.175069 -0.329127 -0.706838 1.869967 0.862935 -0.475381 0.864062 0.277405 -0.902907 0.108901 -0.015113 0.697516 2.036674 -0.028587 -0.264506 -0.715184 0.860409 0.349596 
Mathematical_optimization 0.689799 -1.636061 -0.911476 -1.462116 -1.186777 -0.839428 1.057652 0.880269 0.940472 -1.677320 1.302045 1.413904 -0.342905 0.584293 -1.359060 1.619031 1.243342 -1.488395 0.047134 0.453743 -0.202538 0.282025 -0.424397 -1.349831 0.657239 -0.946975 -0.463963 2.559601 0.490805 -0.016200 0.183808 -0.421511 -0.862927 0.156573 1.162798 -0.695190 0.066379 -1.332784 1.070457 0.596907 -0.220883 0.694879 0.555816 -0.201591 1.527629 0.275320 -0.666348 0.199144 -0.101051 -0.383189 
Software_deployment -0.695281 -0.377746 -1.318200 -1.104053 1.193821 1.870379 -0.529129 -0.149419 -2.227111 0.394881 -0.090343 -1.040642 0.176541 -0.084228 0.226852 0.002796 0.189608 -0.534508 0.409469 1.021799 0.557476 0.606205 1.041549 -1.681432 -0.363878 -0.571720 -1.561528 -1.719285 -0.098038 -2.148957 -0.129839 1.678737 -0.282485 -0.059235 0.101200 2.294010 0.790048 -0.135749 0.865752 0.257302 -1.748594 0.879934 -0.007972 0.719117 1.466699 1.566139 -0.507879 -0.899703 0.814490 -0.474892 
Align_company 0.054111 -0.210275 -1.157090 -1.547334 0.300655 0.208905 0.198598 0.578507 -1.801391 -0.392942 0.471489 -2.276851 1.871947 0.233154 -0.192645 1.047290 2.466560 -1.427775 0.313923 2.063333 -0.042685 0.829353 0.500644 -1.582122 -0.405819 1.129760 -2.439829 0.057460 -0.943385 -3.109727 0.080712 0.937548 -0.664683 0.302823 1.007674 1.700697 0.034183 -0.297850 1.144079 0.956031 -0.264029 1.431546 -0.551842 0.453116 2.079213 0.453174 -0.760367 -1.605706 -0.512508 0.257552 
2010 1.535581 0.204028 0.425605 0.599975 -0.072875 0.364474 0.470549 0.125373 0.484233 -0.032649 -0.320066 0.076776 -0.527974 0.016423 0.011002 0.300296 1.211792 -1.392101 0.069572 1.644931 -0.214746 0.111763 0.007953 -0.627350 -0.015656 -0.845313 -0.287600 0.437204 -0.101395 -0.698221 -0.307930 -0.180555 -0.103391 -1.009042 0.307525 0.306404 0.131380 0.105209 0.086397 0.140100 -0.037922 0.461440 -0.519957 0.121891 -0.147861 -0.375034 0.464141 0.972734 -0.938409 0.924570 
Processing -0.433616 -0.977191 -1.306227 -1.138393 -0.278821 -0.330074 -0.846126 0.358746 -0.704824 0.016731 0.710223 -1.300697 0.743926 0.598640 -0.538590 0.799386 0.757711 -0.220232 -0.119935 1.116087 -0.062484 0.236739 0.529008 -0.362915 0.296434 1.158599 -2.295856 -0.329301 -0.538503 -0.798742 0.209989 0.293550 -0.892991 1.233388 1.017555 0.792552 0.450070 -0.204374 0.921222 0.663555 -0.692285 0.907607 0.374410 -0.250553 0.352286 1.508795 -1.020905 -0.830807 0.267817 -0.550527 
Semantics_computer_science 1.664975 -0.673683 -0.084951 -0.122415 -0.716271 -0.424039 0.422697 0.153176 0.930056 -1.588400 0.923378 0.681550 -0.834085 0.225207 -0.569270 1.790963 1.488580 -1.452496 0.164771 -0.258404 -0.631670 0.853741 -0.384616 -0.731125 0.303467 -0.525335 0.364364 1.769608 0.791127 0.281404 0.444147 -0.865744 -0.742243 -1.131142 0.919937 -0.365956 0.055446 -0.786418 -0.126390 -0.211836 -0.246462 0.249775 -0.142003 0.353491 0.509469 0.344151 0.287573 1.065249 -0.518892 -0.127697 
Semantic_integration 2.289192 -0.163051 0.600339 0.133521 -0.577162 -0.121076 0.316085 -0.329732 0.796069 -1.289247 0.350639 0.293420 -1.103129 -0.104331 -0.107096 1.658325 1.913465 -1.528684 0.310234 -0.109723 -0.923027 1.371326 -0.068254 -0.618115 -0.292438 -0.293090 0.082240 1.332577 0.320128 -0.229952 -0.125320 -0.852296 -0.462940 -1.393752 0.876754 0.040249 0.085743 -0.608244 -0.257798 -0.319857 -0.047336 0.801655 -0.631642 0.254747 0.135582 0.036652 0.331707 1.035647 -1.204381 -0.017533 
Tag_cloud 1.645789 -0.711314 1.173605 1.192347 -0.549352 -1.876005 -0.351585 -0.023923 1.357374 0.141435 0.704815 -0.155135 -1.055238 -0.229648 -0.384863 1.455512 0.116654 -0.887005 0.561230 2.696174 -0.423020 -0.009379 -0.299492 -0.614587 0.429163 -0.413186 -2.297462 0.947656 -0.113797 1.001110 0.292775 -0.851945 -1.625449 -0.235222 -0.872143 -1.080305 0.708080 0.149357 1.700791 -0.291572 0.353364 0.766416 0.579012 -0.646389 -2.118475 0.594188 1.090404 1.126549 -0.749173 0.798463 
ontology 2.104313 0.531613 1.284488 0.659698 0.502561 -1.116017 1.223042 -0.105637 0.349872 -0.267681 0.288839 -0.193184 -0.679272 -0.998085 0.355776 1.183649 1.632716 -1.449059 0.614008 1.508229 -0.517358 0.691365 -0.280954 -1.153823 -0.693980 -0.637446 -0.473793 0.709114 -0.025261 -0.571207 -0.368742 -0.816751 -0.594572 -0.865097 -1.033660 -0.583387 0.115417 0.124795 0.779535 -0.572964 0.946501 0.695738 -0.385658 0.140606 -0.141878 -0.814525 0.876721 0.601396 -1.943215 1.182315 
Learning 0.381144 -0.667781 -0.671571 -0.457420 -0.633549 -0.803621 -0.653195 0.410651 -0.266598 -0.282911 0.545982 -1.355308 0.913099 0.258324 -0.532445 0.875127 0.967330 -1.015728 0.190064 1.560402 -0.022979 0.149066 -0.012601 -0.447462 0.080640 1.214737 -2.160057 0.508608 -0.607248 -1.015072 -0.038102 0.111659 -0.576746 0.408988 0.718748 0.741064 0.065994 -0.378145 0.777633 0.844029 -0.123936 1.082846 0.059496 0.114130 0.111289 0.531950 -0.530258 -0.716510 -0.033638 0.287085 
Graphical_user_interface 0.041995 0.079595 -1.465525 -1.308957 0.998554 1.568044 0.492160 0.311544 -1.988710 -0.311928 0.401747 -1.844125 0.671989 0.196732 -0.089239 0.625900 1.759855 -1.235398 0.200860 1.649486 -0.009125 0.198373 0.583884 -1.594957 -0.015801 0.085044 -1.666123 -1.474751 0.421347 -2.204977 0.327882 1.059902 -0.274465 -0.326967 0.889070 2.328716 0.929515 -0.068636 0.454330 0.560457 -1.464880 0.332421 -0.354643 1.002072 2.021116 0.882779 -0.202837 -0.874011 0.356994 0.205270 
Alignment 0.820092 -0.230183 0.373453 -0.688010 -0.225695 -1.054505 0.083536 0.696782 -0.705399 -0.680713 0.293338 -2.292772 1.371940 -0.011531 -0.497911 1.305060 2.397289 -1.678479 0.203303 2.015125 -0.523760 0.985088 -0.174107 -0.598714 -1.103254 1.733459 -1.813738 0.909870 -1.070989 -2.171333 0.042653 -0.166207 -0.778335 0.069547 0.309885 0.255061 -0.253089 -0.202997 1.449288 0.431119 1.181983 1.091551 -0.292463 0.328010 0.617217 -0.449485 -0.040699 -0.743081 -2.148887 1.004594 
Evaluation 1.376742 0.751153 0.865725 0.405194 1.103100 -0.303339 1.529129 0.160123 -0.186390 0.268383 -0.015638 0.162556 -0.719776 -0.925743 0.311241 0.146565 0.850639 -1.167448 0.542002 2.379136 0.044264 -0.231750 -0.112035 -1.588415 -0.595835 -1.709551 -0.429485 -0.066794 0.045197 -0.894162 -0.372240 0.077197 -0.270143 -0.707415 -1.576340 -0.065462 0.508879 0.210233 1.266656 -0.460096 0.579448 0.198800 -0.218133 0.266555 0.242649 -0.932437 0.921142 0.615794 -1.420754 1.491718 
WordNet 0.163048 -0.737657 -1.025403 -1.725964 -0.131745 -0.399422 0.247810 0.657266 -1.434588 -0.596562 0.922269 -2.201605 1.806944 0.159213 -0.378490 1.297577 2.506717 -1.549488 0.411757 1.822491 -0.101111 1.074387 0.284216 -1.529532 -0.566115 1.265763 -2.476531 0.733334 -0.862475 -2.800611 -0.041736 0.517238 -0.767592 0.524425 0.809214 1.255394 0.022080 -0.590110 1.424252 0.988069 0.030609 1.562155 -0.350555 0.387363 1.857513 0.472057 -0.937333 -1.682623 -0.803442 0.169117 
2012 1.428950 0.270783 0.554961 0.613105 0.087646 0.367417 0.429052 -0.005348 0.366072 0.094842 -0.327890 -0.103020 -0.554046 -0.115932 0.124714 0.263667 1.107183 -1.235221 0.149045 1.602381 -0.213056 0.196249 0.071717 -0.628032 -0.156511 -0.786163 -0.349320 0.188654 -0.189864 -0.605229 -0.297659 -0.174540 -0.146390 -0.956187 0.056952 0.306906 0.230216 0.177581 0.172365 -0.022243 0.003665 0.517277 -0.472696 0.059919 -0.341193 -0.308946 0.560942 0.874631 -1.014049 0.930194 
Query_language 0.612469 0.077843 -0.462564 0.110239 0.755522 1.190847 1.315286 0.612065 -0.263243 0.788765 0.139902 0.336488 -0.686717 0.052300 -0.141636 -0.337822 0.158959 -1.053543 0.165949 3.320649 0.409138 -1.179134 0.255602 -1.752546 0.706336 -2.531133 -1.054440 -0.602987 0.587462 -0.581943 0.148524 0.704855 -0.595422 -0.752250 -0.720456 0.705717 1.332081 0.199361 1.191223 0.218330 -0.787514 -0.188387 -0.028977 0.214257 0.265319 0.196714 0.878786 0.996490 0.376879 1.116774 
Relational_database 1.760126 -0.978311 0.170851 -0.028989 -1.034813 -0.587018 0.202027 0.169390 1.335057 -1.267515 0.863890 0.876441 -1.340138 0.301424 -0.673995 2.068757 1.379203 -1.099146 -0.020115 -0.150078 -0.814782 1.083227 -0.259358 -0.596825 0.459202 -0.608594 -0.157998 1.872168 0.660271 0.780571 0.351180 -0.974833 -0.962954 -0.816836 0.867334 -0.726459 0.369301 -0.832311 0.253584 -0.241751 -0.286899 0.488891 -0.066532 -0.142482 -0.191055 0.851821 0.496471 1.332666 -0.646042 -0.371246 
Natural_language 0.967916 0.490389 0.350955 0.270608 1.046988 0.446917 1.449645 0.233104 -0.225295 0.639302 0.072013 0.259776 -0.766981 -0.554167 0.260979 -0.250486 0.450413 -0.989890 0.498334 2.932505 0.330731 -0.597397 0.198931 -1.897934 0.119348 -2.335013 -0.780282 -0.367628 0.138402 -0.825662 -0.290858 0.421214 -0.336370 -0.668964 -1.433543 0.281358 0.963687 0.283298 1.270450 -0.102896 -0.151894 0.318467 -0.140912 -0.099505 0.193536 -0.438559 0.807393 0.644468 -0.606240 1.213223 
Search 1.109501 -1.162903 0.257091 0.323117 -1.043798 -1.083010 -0.564509 0.624785 0.934355 -0.795170 0.724304 -0.315630 -0.584900 0.694086 -1.009688 1.552076 0.229221 -0.794150 0.042515 1.385681 -0.456815 0.111837 -0.374280 -0.374583 0.610109 0.048855 -1.450932 1.529309 0.112566 0.659637 0.437255 -0.404169 -1.511904 -0.279529 0.376402 -1.090045 0.502768 -0.159304 1.213794 0.116920 -0.242060 0.494395 0.541311 -0.484914 -0.994631 0.796490 0.631171 0.784700 -0.511264 0.279151 
Language 0.155612 -0.925255 -0.400731 -0.482961 -0.608660 -1.444819 -0.570929 0.297161 -0.038237 -0.540492 1.337985 -1.378984 0.414465 0.451571 -0.801568 1.544784 0.614664 -0.183975 0.131148 0.626232 -0.507673 0.158154 -0.059236 -0.111626 0.446497 1.591004 -1.856284 0.504232 -0.129838 0.382757 0.867730 -0.412000 -1.125144 0.706413 0.587489 -0.091536 0.484193 -0.246428 0.874216 0.090371 -0.054885 0.367196 0.475471 -0.101624 -0.432516 1.294814 -0.206811 -0.379337 0.025162 -0.219130 
Semantic_similarity 0.461307 -1.140849 -0.691988 -1.281887 -0.869505 -1.112530 0.771478 0.869641 0.316623 -1.575168 1.131197 -0.101507 0.739956 0.529055 -1.073431 1.477475 1.787514 -1.434355 0.145482 0.619595 -0.000990 0.672384 -0.435618 -0.972837 0.123314 0.111770 -0.742536 2.413831 -0.129156 -1.036826 0.273885 -0.340047 -0.912148 0.131062 0.827322 -0.422762 -0.249027 -0.921139 1.075378 0.699865 0.388688 0.788588 0.166670 -0.129749 1.544118 -0.051664 -0.568227 -0.230558 -0.688798 -0.087762 
2007 1.302673 0.257715 0.381492 0.432003 0.087111 0.462808 0.462091 -0.149303 0.232022 -0.111076 -0.180256 0.086888 -0.628401 -0.200396 0.138224 0.313631 0.974357 -1.152366 0.306221 0.974284 -0.220059 0.267184 0.051381 -0.651307 -0.296778 -0.810282 0.022728 0.324195 0.153918 -0.570866 -0.318223 -0.081898 0.028338 -1.016283 0.055886 0.522498 0.157362 -0.126680 -0.003912 -0.031252 -0.001067 0.330792 -0.573276 0.325410 0.078884 -0.386668 0.419612 0.837361 -0.691107 0.614182 
Description 2.018539 0.809097 -0.026199 -0.258358 0.877195 1.642419 0.934723 -0.450156 -0.971781 -0.693094 -0.057642 -0.539151 -1.027236 -0.369350 0.452075 0.739116 2.433917 -1.874959 0.312466 1.095089 -0.443066 0.675353 0.399501 -1.422947 -0.475594 -0.996201 -0.037868 -0.796934 0.601618 -1.522595 -0.223992 0.116267 0.207185 -1.660829 0.592727 1.925062 0.698260 -0.088232 -0.545748 -0.121907 -0.942497 0.239843 -1.081342 1.284076 1.398352 -0.071592 0.623907 0.652755 -0.807414 0.827740 
2011 1.507901 0.223901 0.626081 0.527715 0.039049 0.197937 0.436955 -0.151926 0.459660 -0.183198 -0.189191 0.185564 -0.699637 -0.185134 0.093403 0.439170 1.103931 -1.259752 0.178618 1.274053 -0.272249 0.374716 -0.025313 -0.644265 -0.168352 -0.913737 -0.103696 0.475784 -0.113597 -0.506657 -0.268700 -0.291225 -0.122617 -0.970830 0.077763 0.106639 0.135227 0.020392 0.058647 -0.134123 0.077592 0.493478 -0.423699 0.093538 -0.146055 -0.360879 0.456808 0.910461 -1.063351 0.777428 
National -0.737411 -1.103583 0.014777 -0.924327 0.821007 -0.967818 -1.148073 -1.171010 -1.339005 -0.091984 1.604662 0.170692 -1.345224 -1.168998 -0.036928 2.110054 -1.009463 1.026591 1.389431 -1.635168 0.004090 1.915325 0.927054 -1.231299 -0.943177 0.102138 -1.088782 -0.492128 0.600081 0.404441 0.433458 -0.186346 -1.630476 0.943555 -1.577821 0.002913 0.966437 -0.750039 1.741579 -1.516965 -0.256346 0.699644 0.822772 0.123251 -0.233379 2.391800 -0.566271 -0.459231 0.330919 -2.037243 
Based 1.550038 -0.247916 0.919077 0.883615 -0.451314 -1.235082 0.413075 -0.225513 0.821177 -0.122846 0.929306 -0.411003 -0.901420 -0.305028 -0.285688 1.210080 0.405447 -1.009869 0.639398 1.346240 -0.752809 -0.034875 -0.489649 -0.424894 -0.020534 -0.180922 -1.064227 0.902285 0.561066 0.606210 0.346144 -0.803737 -0.984515 -0.858607 -0.545237 -0.270233 0.644971 -0.202605 0.704559 -0.344736 0.360759 0.132797 0.030886 0.252966 -1.150710 0.056082 1.072387 0.957399 -0.565742 0.876647 
Knowledge_representation_and_reasoning 2.286286 -0.121339 0.628957 0.719613 -0.413880 0.038363 -0.197575 -0.331066 0.781393 -0.711968 0.245494 0.172011 -1.391288 -0.069985 0.110353 1.725205 1.600843 -1.284048 0.260964 -0.158131 -0.815058 1.274906 0.106083 -0.520446 -0.188312 -0.387111 -0.019328 0.756042 0.485594 0.151876 0.089913 -0.794196 -0.722059 -1.562796 0.450556 0.072802 0.341305 -0.307062 -0.315473 -0.586518 -0.258067 0.647450 -0.773104 0.356256 -0.547794 0.706259 0.854496 1.587669 -1.107458 -0.028869 
Natural_language_processing 1.840547 0.017320 1.400910 1.059864 0.071972 -1.043790 0.519024 -0.403921 0.744932 0.163837 0.750659 -0.073321 -1.545933 -0.637542 -0.117191 1.283032 0.260688 -0.735045 0.759099 1.531486 -0.648030 0.128133 -0.079384 -0.818498 -0.128000 -0.804744 -0.836296 0.748016 0.528044 0.660623 0.268977 -0.848547 -1.228400 -0.986989 -1.183052 -0.745225 0.817662 0.054388 1.001285 -0.847156 0.646023 0.203752 -0.003355 -0.109401 -1.527306 0.023567 1.337370 1.336931 -0.969542 0.813866 
Design 0.166946 -0.388105 -0.368559 -0.526274 -0.087144 -0.488517 -0.818318 -0.338247 -0.564484 -0.247877 0.604558 -0.731859 0.197808 -0.262123 -0.207026 0.567948 0.628131 -0.498521 0.555627 0.039024 0.002904 0.627092 0.318891 -0.319287 -0.265490 1.048491 -1.053375 0.130070 -0.420610 -0.617305 -0.100118 0.206084 -0.144233 0.327890 0.514430 0.969653 0.073317 -0.575965 0.340346 0.174325 -0.112611 0.698586 -0.002913 0.352041 0.213997 0.671395 -0.859896 -0.585604 -0.029513 -0.460373 
China -0.682116 -1.053052 0.048115 -0.959243 0.921474 -0.798073 -0.954963 -1.254559 -1.300112 -0.167097 1.603059 0.361120 -1.507378 -1.193901 0.094730 2.139911 -0.975678 1.064055 1.482677 -1.913529 -0.025335 2.028430 1.013768 -1.345271 -0.993573 -0.145647 -0.878976 -0.502293 0.728429 0.464409 0.391259 -0.216993 -1.528091 0.860486 -1.639080 0.082200 0.964342 -0.830462 1.577299 -1.632357 -0.317692 0.713113 0.757407 0.121835 -0.038891 2.436194 -0.553895 -0.377387 0.365740 -2.169482 
Study 1.201339 0.526020 0.934407 0.801594 1.268114 0.755890 0.559318 -0.628878 -0.334990 0.818813 -0.155502 0.391382 -1.673640 -0.976464 0.492261 0.029888 -0.096332 -0.641310 0.870008 1.611428 0.064797 0.218637 0.598915 -1.403696 -0.582571 -2.042251 -0.218602 -0.767549 0.355948 -0.303515 -0.217456 0.124131 -0.453229 -1.130577 -1.631223 0.448286 0.983617 0.256057 0.855004 -0.987504 -0.040982 0.187382 -0.396136 0.412001 -0.661742 -0.002866 1.056546 1.279135 -0.731850 0.707606 
Communication_endpoint 1.340832 -0.941362 0.219745 0.107169 -0.911960 -0.448848 -0.166725 0.088956 1.167336 -0.739944 0.447066 0.867492 -0.990750 0.309297 -0.484391 1.545055 0.867716 -0.981249 0.009791 0.372467 -0.480269 0.956618 0.008744 -0.523962 0.283510 -0.624194 -0.467460 1.517586 0.117236 0.481800 -0.012090 -0.687882 -0.807462 -0.396175 0.772016 -0.679560 0.106544 -0.531525 0.405400 -0.033014 -0.084674 0.901183 0.025468 -0.561773 -0.476850 0.618624 0.098407 1.033126 -0.461261 -0.414804 
Annotation -0.257737 -0.846486 -1.027407 -0.690686 -0.274991 0.053466 0.243446 0.117623 0.011080 -0.134530 0.832651 0.589109 0.109392 0.256809 -0.643544 0.184206 -0.205828 -0.837260 0.631184 1.036804 0.687942 -0.233201 0.007252 -1.180536 0.440853 -0.996034 -0.841559 0.882938 0.247860 -0.627441 -0.006959 0.514981 -0.369851 0.035373 0.129313 0.655395 0.190704 -0.790064 0.909637 0.665007 -0.426663 0.590287 0.317405 -0.117142 1.093913 0.281683 -0.831731 -0.156854 0.948642 -0.207814 
2009 1.449798 0.247087 0.459803 0.482733 0.015073 0.450163 0.387738 -0.084740 0.382266 -0.195856 -0.203439 0.166665 -0.758178 -0.138307 0.052719 0.372124 1.027398 -1.243135 0.203652 1.066483 -0.319980 0.223290 0.032351 -0.584596 -0.083150 -0.821612 -0.046660 0.253400 0.095850 -0.398962 -0.231633 -0.196148 -0.024978 -1.166876 0.222133 0.394677 0.188996 -0.037960 -0.123435 -0.054904 -0.125679 0.299551 -0.503536 0.329144 -0.089729 -0.284738 0.572714 0.949423 -0.759270 0.661783 
Analysis 0.793575 -1.130712 -0.060950 -0.482868 -0.863889 -0.793537 0.007389 0.061772 0.878299 -1.144652 0.892379 1.064982 -0.748683 0.062146 -0.797979 1.264652 0.454678 -0.892796 0.349214 -0.069919 -0.126262 0.675535 -0.092636 -0.730913 0.248787 -0.649758 -0.166033 1.901252 0.280870 0.342837 -0.045907 -0.353675 -0.674917 -0.172056 0.559773 -0.609060 0.000097 -0.915630 0.628287 0.054567 -0.032576 0.739550 0.320061 -0.316711 0.270953 0.351374 -0.367708 0.489423 -0.187067 -0.589346 
Universit -0.771017 -1.005878 0.293978 -1.099616 1.567189 -0.925855 -1.047808 -1.647511 -2.112762 -0.094692 1.830319 0.486024 -2.092251 -1.669564 0.342225 2.811898 -1.197299 1.537280 2.018355 -2.383337 -0.145817 2.691807 1.318262 -2.072280 -1.780682 -0.670561 -0.949154 -1.212111 0.951416 0.385096 0.431289 -0.324359 -2.181952 0.946470 -2.573759 0.029141 1.068054 -0.937486 2.145668 -2.331712 -0.349108 0.899272 0.839854 0.172213 -0.028808 3.042273 -0.347445 -0.368217 0.234797 -2.455459 
Discovery -0.447763 -0.674083 -1.097474 -0.477805 0.396994 0.992852 0.271216 0.019577 -0.658191 0.294479 0.353921 1.138329 -0.651085 0.064982 -0.331598 -0.357418 -1.023154 -0.630341 0.622936 1.598729 0.835850 -0.465909 0.283155 -1.690264 0.328377 -2.206749 -0.715026 -0.488692 0.700413 -0.452531 -0.159725 0.992116 -0.463231 -0.145365 -0.475303 1.036655 0.887101 -0.603326 1.291292 0.288091 -1.221890 0.259083 0.465962 0.333124 1.150900 0.634794 -0.243763 0.178163 1.202636 -0.118553 
Social 1.053095 0.060625 1.011019 0.899968 0.545579 0.216756 0.080819 -0.604159 0.197227 0.596838 0.071252 0.677104 -1.771745 -0.686510 0.219097 0.402738 -0.402709 -0.471795 0.749432 1.061767 -0.119357 0.337248 0.362185 -0.982973 -0.346203 -1.709276 -0.335228 -0.105166 0.450127 0.188376 -0.120992 -0.140374 -0.801131 -0.916899 -1.353915 -0.114006 0.766866 0.038386 0.995111 -0.810905 -0.084715 0.306904 -0.089458 0.115016 -1.015634 0.302190 1.037169 1.371270 -0.528152 0.345025 
Beijing -0.476050 -0.904418 0.012928 -0.748900 0.731593 -0.641232 -0.779277 -1.010585 -1.038124 -0.094217 1.363404 0.348452 -1.310086 -0.988976 0.010667 1.768780 -0.808957 0.737271 1.244580 -1.332593 0.030176 1.648394 0.819833 -1.201501 -0.797518 -0.270693 -0.860056 -0.372239 0.588085 0.301320 0.289497 -0.170027 -1.304709 0.659662 -1.356620 0.096440 0.852103 -0.722912 1.408339 -1.294051 -0.262974 0.650215 0.599948 0.121606 -0.063617 2.028922 -0.464533 -0.268187 0.329064 -1.719638 
Subsumption_architecture 1.142335 0.461917 -0.874332 -1.244866 0.729329 1.190777 1.060904 0.324331 -1.455758 -0.932639 0.310676 -1.666133 0.572227 0.107374 0.004185 0.863500 2.819599 -1.809865 0.173255 1.590579 -0.272712 0.426616 0.277386 -1.609713 -0.210810 0.042189 -1.047261 -0.630728 0.072460 -2.258214 0.143167 0.575125 -0.049378 -0.881142 1.158285 1.998685 0.471002 -0.194710 0.075608 0.562631 -0.858667 0.442848 -0.780213 1.037501 2.299243 -0.055525 -0.052773 -0.620507 -0.669599 0.660351 
Pattern 0.992648 0.470468 0.873794 0.266789 0.933643 0.367469 0.522196 -0.661830 -0.334579 0.310440 0.048218 0.156786 -1.196615 -0.876872 0.317100 -0.200867 0.328278 -0.755052 0.853046 0.958887 -0.006857 0.177781 0.419655 -0.844269 -0.674348 -1.165374 0.033364 -0.392824 0.116275 -0.397120 -0.171620 0.150326 -0.015604 -0.801405 -1.028869 0.673196 0.758804 -0.184068 0.445150 -0.754484 0.081146 0.008866 -0.313489 0.643890 -0.235724 -0.158228 0.476413 0.626340 -0.654802 0.511071 
Querying -0.485087 -0.796736 -1.704252 -1.136127 0.145079 0.362449 1.048559 0.745824 -0.469755 0.113613 1.004007 0.363087 0.420216 0.353411 -0.590835 -0.118052 0.155023 -0.810714 0.263475 2.323453 0.742097 -1.106823 0.066812 -1.727916 1.089094 -1.482463 -1.543936 -0.036340 0.456113 -0.760411 0.371547 0.883759 -0.582898 0.339548 0.096634 0.995769 0.838298 -0.470767 1.204849 0.910499 -1.062609 0.113298 0.455007 0.118819 1.528664 0.575386 -0.515931 -0.366155 1.411740 0.222379 
Semantic_search 1.369033 -1.097827 0.165135 -0.014396 -1.030473 -0.484105 -0.105318 0.248753 1.029957 -1.308522 0.785838 0.697792 -1.052519 0.512615 -0.865761 1.805250 0.804028 -0.996340 0.123039 0.093267 -0.492168 0.832663 -0.195846 -0.667902 0.458481 -0.612595 -0.184415 1.891458 0.560359 0.459106 0.397921 -0.491028 -1.111399 -0.999943 0.847905 -0.975130 0.220159 -0.559942 0.490168 -0.053818 -0.381814 0.540836 0.114262 -0.221243 -0.064992 0.764832 0.433704 1.187630 -0.442889 -0.353047 
Graph 0.722964 -1.263284 -0.253477 -0.790649 -0.893604 -0.899807 0.236093 0.582634 0.838893 -1.058418 0.966248 0.452652 -0.428268 0.669000 -1.156784 1.471758 1.041569 -0.810003 -0.021778 0.404731 -0.364712 0.537242 -0.025773 -0.721754 0.663955 -0.299819 -0.992057 1.874446 -0.075037 -0.048161 0.410187 -0.334564 -0.975261 0.193509 0.864938 -0.813967 0.269646 -0.857635 0.978702 0.300380 -0.367370 0.835307 0.438856 -0.508907 0.389204 0.801797 -0.345811 0.195731 -0.345099 -0.399804 
Emoticon 0.226369 -0.860183 -0.569405 -1.074922 -0.569261 -1.129572 -0.459165 0.732675 -0.725171 -0.648689 0.713772 -1.843017 1.346117 0.315783 -0.664779 1.594096 1.751588 -1.057127 0.242440 1.364380 -0.337714 0.924133 0.100836 -0.742350 -0.418117 1.789950 -2.285038 0.975295 -0.781117 -1.637333 0.252161 0.071943 -1.011175 0.655011 0.799461 0.371755 -0.067790 -0.410466 1.445870 0.695052 0.272609 1.239582 0.038553 0.068686 0.595561 0.662698 -0.556637 -1.051085 -0.859496 0.097589 
matching 0.678050 -0.066593 -0.313732 -0.876375 -0.043630 -0.623758 0.714103 0.518394 -0.741272 -0.575447 0.618114 -1.825974 1.330019 0.058370 -0.211073 1.004742 2.287908 -1.312074 0.137423 1.666659 -0.335725 0.399972 -0.163336 -0.966231 -0.277126 1.047925 -1.663579 0.516460 -0.587469 -1.824178 0.153071 -0.001907 -0.638263 0.083624 0.501387 0.626864 -0.057571 -0.142504 0.784644 0.530853 0.455752 0.742499 -0.332190 0.234250 1.125215 -0.234395 -0.207666 -0.960548 -1.042909 0.738237 
Internet 1.573383 -0.697581 0.754988 0.542976 -0.672857 -0.725724 -0.242140 -0.474307 1.145219 -0.759393 0.679572 0.863043 -1.570441 -0.175617 -0.226145 1.840040 0.480533 -0.744054 0.514437 -0.357603 -0.661399 1.182022 -0.059444 -0.526056 -0.149024 -0.573518 -0.201900 1.258325 0.447906 0.884159 0.053491 -0.993882 -0.898128 -0.812367 0.094799 -0.630058 0.210329 -0.551006 0.268523 -0.684431 0.067369 0.687758 0.015409 -0.160533 -0.890998 0.667354 0.423846 1.208557 -0.638526 -0.421008 
Building 1.483904 0.503009 0.862279 0.439878 0.631383 1.100252 0.035512 -0.742810 -0.195662 0.081646 -0.356037 0.158239 -1.563981 -0.446642 0.425834 0.557465 0.936363 -0.743501 0.320477 0.349058 -0.469445 1.064258 0.697371 -0.729211 -0.418075 -1.182065 -0.066936 -0.437256 0.072554 -0.628835 -0.313163 -0.153617 -0.257917 -1.311565 -0.209387 0.429092 0.635467 0.063684 -0.038729 -0.649143 -0.500370 0.630602 -0.630513 0.342277 -0.250641 0.368924 0.744518 1.049414 -0.970819 0.114192 
Platform 0.416441 0.028047 -0.170148 0.165583 0.907836 1.999137 -0.421174 -0.261389 -1.065428 0.396138 -0.604967 -0.192612 -0.991077 -0.131047 0.250909 0.132058 0.218576 -0.758654 0.211360 1.123233 0.031465 0.620585 0.896647 -1.128587 -0.364562 -1.289423 -0.466721 -1.111186 0.236098 -1.212230 -0.227427 0.835350 -0.321416 -1.040712 -0.113566 1.284830 0.842978 0.139694 0.508011 -0.209074 -1.287297 0.544577 -0.277720 0.439325 0.218120 0.952374 0.571744 0.776429 -0.192517 0.075136 
Queries 1.379011 0.465832 0.173051 0.304169 0.803941 1.967016 0.410318 0.134298 -0.535488 0.388809 -0.766655 -0.158764 -1.109773 0.087381 0.222499 0.301776 1.263543 -1.271034 -0.114842 2.189301 -0.218586 0.439378 0.846855 -1.286626 -0.035979 -1.849401 -0.327907 -0.672131 -0.005795 -1.420854 -0.187558 0.522087 -0.251097 -1.397774 0.280438 0.854905 0.791262 0.377673 0.270206 -0.174388 -0.963474 0.449493 -0.635840 0.336410 0.138964 0.415757 0.781906 1.362366 -0.928645 0.769075 
Text_corpus -0.101119 0.030939 -0.756709 -0.783990 0.769626 0.548409 1.293109 0.303441 -0.947815 0.192443 0.499625 0.184856 0.021840 -0.307016 0.006288 -0.346906 0.184073 -0.636809 0.538725 1.883868 0.749732 -0.805277 0.220702 -1.855832 0.256812 -1.703073 -0.859472 -0.457473 0.312683 -1.034565 -0.169432 0.954383 -0.150280 -0.024375 -0.770385 1.010032 0.678564 -0.255140 1.103715 0.431370 -0.541975 0.264556 0.126382 0.240703 1.618523 -0.027615 -0.176634 -0.442355 0.511654 0.492320 
Turing_completeness 1.052694 -1.095801 -0.320392 -0.806505 -0.792781 -1.071089 0.604153 0.581274 0.799698 -1.658755 1.110134 0.423144 -0.010132 0.387059 -0.970832 1.851282 1.759735 -1.459530 0.112570 0.045091 -0.398992 1.005772 -0.446095 -0.865480 0.145998 -0.121490 -0.237175 2.354991 0.223935 -0.311007 0.392623 -0.850387 -1.006959 -0.305015 0.756012 -0.798586 -0.179058 -0.862492 0.699871 0.126726 0.338218 0.633430 0.100708 -0.123783 0.942658 0.080658 -0.216967 0.403473 -0.917773 -0.200961 
Uniform_Resource_Identifier 0.852131 0.415255 0.472904 0.366695 1.240827 0.696927 1.260939 -0.082657 -0.410696 0.898093 0.153918 0.360725 -1.058144 -0.763270 0.243300 -0.205648 0.017849 -0.876823 0.753881 2.641863 0.363799 -0.527271 0.400070 -1.807469 -0.160520 -2.316040 -0.606509 -0.458395 0.406404 -0.681281 -0.055300 0.364290 -0.686062 -0.882869 -1.656268 0.341968 1.065891 0.214520 1.391472 -0.518664 -0.005311 0.042666 -0.178615 0.252932 -0.127067 -0.285506 1.037406 0.942752 -0.449006 1.086636 
Similarity_measure -0.401549 -0.489895 -1.111023 -1.543486 0.379976 -0.221358 1.870180 0.599008 -0.506317 -0.337109 1.034411 0.397547 0.854821 -0.167047 -0.528172 0.046398 0.888269 -1.102395 0.490916 1.596656 0.862923 -0.448727 -0.161467 -1.919433 0.302637 -1.264083 -0.740151 0.913856 0.104332 -1.446146 -0.063214 0.576686 -0.322142 0.428298 -0.352543 0.549637 0.083657 -0.766671 1.329902 0.770297 0.197685 0.365190 0.124809 0.017186 2.330586 -0.657275 -0.787841 -0.764312 0.335563 0.287446 
Model 1.145016 -0.865016 -0.038229 -0.061924 -0.872941 -0.622424 -0.170057 0.109924 0.984665 -1.127421 0.773706 0.503081 -0.716020 0.390725 -0.678543 1.618518 0.850428 -0.959053 0.111066 -0.151187 -0.504295 0.742756 -0.203211 -0.379828 0.370244 -0.199668 -0.307070 1.377164 0.516139 0.590205 0.352183 -0.741800 -0.732940 -0.645077 0.807275 -0.437611 0.155265 -0.616649 0.114811 -0.138526 -0.351191 0.371205 0.069924 0.036953 -0.041383 0.710233 0.198617 0.789605 -0.308916 -0.369469 
Laboratory -0.826546 -0.953516 -0.248660 -1.195511 1.056813 -0.508166 -1.258900 -1.410740 -1.769786 -0.123869 1.657827 0.121909 -1.486900 -1.302530 0.146603 2.241221 -0.940503 1.027014 1.579162 -1.951150 -0.022035 2.119859 1.178975 -1.516049 -1.038388 -0.049476 -1.156911 -0.959654 0.766862 0.172145 0.325731 0.010572 -1.501064 0.897715 -1.510568 0.592823 1.164036 -0.880987 1.537767 -1.609951 -0.689942 0.783088 0.733005 0.365360 0.204462 2.730012 -0.758581 -0.661996 0.666274 -2.301243 
Emergence 1.189381 -0.978033 0.530720 0.077501 -0.923291 -1.945955 -0.079234 0.221820 0.624521 -0.755319 1.381047 -1.222948 -0.141120 0.023214 -0.788399 2.151762 0.979517 -0.901572 0.296102 1.315846 -0.879473 0.399025 -0.683605 -0.342963 0.160880 1.080271 -1.929550 1.496762 0.213163 0.398885 0.738598 -0.920467 -1.603439 -0.062400 0.114711 -0.730070 0.480338 -0.334253 1.305423 -0.004861 0.530603 0.412080 0.385750 -0.049981 -0.915327 0.626282 0.625148 0.266792 -0.790398 0.449501 
Answering -0.023428 -0.052517 -0.851834 -0.670157 1.008018 1.016549 1.645683 0.574343 -0.805165 0.441257 0.395059 0.714181 -0.531022 -0.318097 -0.090015 -0.429714 0.020389 -0.771027 0.367737 2.715107 0.771044 -1.153101 0.334579 -2.280077 0.675194 -2.693650 -0.936428 -0.603659 0.622449 -0.934384 -0.121201 1.066577 -0.286009 -0.183793 -0.935176 0.857912 1.085480 -0.049578 1.380065 0.451681 -0.861625 0.131318 0.225295 0.076645 1.400859 0.207224 0.138561 0.169690 0.632060 0.600183 
Server_computing 1.829790 0.910958 0.631738 0.368940 1.318015 2.407603 0.169523 -0.650708 -0.986776 0.169817 -0.732005 -0.330615 -1.788011 -0.232644 0.632539 0.813892 1.699411 -1.221807 0.188197 1.242592 -0.518177 1.400567 1.166584 -1.357226 -0.654552 -1.720770 -0.061789 -1.295892 0.214726 -1.498000 -0.307157 0.165211 -0.193460 -1.835245 0.129623 1.268787 0.931506 0.386907 -0.039286 -0.743223 -1.084524 0.601416 -0.963858 0.533621 0.233300 0.591947 0.921924 1.342734 -1.260468 0.427722 
Tool 1.739908 0.261413 1.331279 1.060307 0.499992 -0.286084 0.404768 -0.518819 0.462233 0.239011 0.152695 0.265369 -1.635114 -0.801083 0.276227 0.857832 0.422398 -0.958706 0.623659 1.461053 -0.438017 0.492439 0.068387 -0.878226 -0.432418 -1.314983 -0.453929 0.180823 0.290923 0.160997 -0.107411 -0.615594 -0.712055 -1.067973 -1.195673 -0.334351 0.647536 0.167278 0.733974 -0.864463 0.339222 0.381333 -0.201304 0.009491 -1.115810 -0.014538 1.187025 1.403968 -1.171528 0.834450 
Browsing -0.262544 -0.231603 -0.690147 -0.641013 0.779433 1.188677 0.698706 -0.141512 -0.857837 0.087446 0.286372 0.924125 -0.785896 -0.213274 0.013015 -0.309859 -0.612413 -0.627330 0.563062 1.158371 0.757269 -0.382884 0.339943 -1.788690 0.015795 -2.288231 -0.213606 -0.596348 0.546181 -0.641738 -0.239879 1.035779 0.011262 -0.378217 -0.641105 0.995680 0.728383 -0.357847 0.943656 0.081106 -0.952870 0.188797 0.304601 0.259907 1.345851 0.401100 -0.177782 0.045584 0.914238 0.120208 
2006 1.285881 0.217399 0.346302 0.515029 -0.042597 0.586371 0.278208 -0.154617 0.281350 -0.136466 -0.144366 0.067931 -0.769734 -0.060775 0.058663 0.344228 0.783089 -1.095855 0.145975 0.839606 -0.289320 0.249081 0.030056 -0.481825 -0.151409 -0.750672 0.036613 0.210117 0.187650 -0.378386 -0.219538 -0.141029 -0.000218 -1.108496 0.190492 0.469360 0.240357 -0.039672 -0.144660 -0.078398 -0.190940 0.252219 -0.547834 0.364335 -0.124806 -0.135766 0.498291 0.966508 -0.556985 0.570715 
Wordsense_disambiguation 1.219863 -1.197776 0.149917 -0.293333 -1.146565 -0.971994 0.101742 0.364142 1.143768 -1.360292 0.940226 0.578439 -0.649028 0.408394 -0.897882 1.891184 1.018903 -1.047106 0.157450 0.250427 -0.487820 0.921113 -0.206092 -0.669034 0.351850 -0.217402 -0.551441 2.332254 0.157568 0.241199 0.083356 -0.688112 -1.058780 -0.301263 0.818194 -1.021864 0.007603 -0.749165 0.732610 0.190862 0.078806 0.988105 0.209382 -0.584243 -0.010107 0.454057 -0.031337 0.621727 -0.737351 -0.358198 
Approximation_algorithm 1.818812 -0.204007 0.434022 0.001949 -0.351972 -0.475856 0.373280 0.053560 0.682447 -1.243384 0.530321 0.200194 -0.834531 -0.047735 -0.241650 1.742641 1.793184 -1.215060 0.130358 -0.318567 -0.804775 1.116679 -0.147946 -0.563763 -0.081744 -0.214312 0.262381 1.361387 0.379257 0.047618 0.380272 -0.876757 -0.661297 -1.138787 0.496176 -0.513923 0.094554 -0.485161 -0.092876 -0.453945 0.066733 0.309047 -0.442013 0.268002 0.196460 0.236385 0.599710 1.018559 -1.192386 0.031668 
Thesaurus 0.388158 -0.686592 0.355023 -0.505622 -0.436672 -1.877787 0.122271 0.309094 -0.281533 -0.699430 1.291354 -1.908196 0.683958 0.046899 -0.700490 2.043780 1.410851 -0.502584 0.335264 0.703962 -0.907591 0.819531 -0.399471 -0.303078 -0.329437 1.799957 -1.807621 0.888019 -0.117372 -0.461478 0.828276 -0.726408 -1.474775 0.457689 0.069220 -0.514317 0.356538 -0.221051 1.479679 -0.164571 0.878539 0.396839 0.297965 0.038531 -0.182320 0.548616 0.233370 -0.625248 -1.070024 0.202428 
Application 1.357226 -0.338310 0.690759 0.623122 -0.351568 0.052906 -0.600773 -0.748525 0.663112 -0.332793 0.136774 0.725700 -1.449910 -0.278446 0.017527 1.396644 0.551858 -0.727829 0.446277 -0.326562 -0.561654 1.282067 0.319316 -0.332924 -0.302947 -0.568303 0.012321 0.538767 0.220343 0.284864 -0.184392 -0.736403 -0.451704 -0.864648 0.215275 -0.090642 0.221214 -0.331327 -0.083847 -0.557283 -0.059499 0.785140 -0.287922 -0.103474 -0.774449 0.618017 0.219438 1.148222 -0.629940 -0.425324 
Information_extraction 1.116567 0.636979 0.176019 0.230655 1.316852 2.033997 0.352065 -0.230591 -1.111044 0.428743 -0.586529 -0.409450 -1.066768 -0.381277 0.527244 0.018275 0.904275 -1.020275 0.323551 1.710882 0.035090 0.433872 0.937570 -1.491890 -0.451433 -1.687647 -0.464971 -1.133725 0.140500 -1.597704 -0.209247 0.747206 -0.314202 -1.399166 -0.532172 1.334391 0.951448 0.375782 0.499339 -0.357496 -0.943637 0.520587 -0.764665 0.629565 0.405510 0.337188 0.894754 0.940401 -0.811088 0.613554 
Archive 0.827448 0.681080 0.271645 0.130102 1.674472 2.214638 -0.125835 -0.644833 -1.585763 0.505811 -0.704301 -0.629312 -1.260755 -0.535120 0.701241 0.187262 0.828847 -0.799634 0.430598 1.076197 0.019756 1.208755 1.223771 -1.545861 -0.900812 -1.548179 -0.475432 -1.640933 -0.119120 -1.953427 -0.242283 0.904556 -0.213334 -1.274223 -0.524848 1.713520 0.989999 0.283865 0.368069 -0.844065 -1.264158 0.831335 -0.682943 0.719639 0.577331 1.011114 0.516615 0.719710 -0.829558 0.202217 
Logic 1.635606 -0.048249 0.645675 0.437361 -0.188934 -1.171591 0.773768 -0.092799 0.505587 -0.358506 0.963272 -0.301575 -0.604129 -0.549333 -0.181956 1.120767 1.071359 -0.902627 0.478378 0.849501 -0.620263 -0.074799 -0.510668 -0.546767 0.056068 0.158351 -0.664844 0.731537 0.618455 0.379505 0.406371 -0.822260 -0.764299 -0.659700 -0.348810 -0.116009 0.538708 -0.212659 0.275528 -0.378255 0.441163 -0.105879 -0.234744 0.497448 -0.574030 -0.141294 0.906432 0.570107 -0.571139 0.824284 
Patterns 1.656951 0.145844 1.094676 0.869346 0.096733 -1.083123 0.364782 -0.162747 0.612295 0.038638 0.467716 -0.148723 -0.985838 -0.541213 0.048630 0.892390 0.508297 -0.878995 0.558719 1.666743 -0.443126 0.014103 -0.164065 -0.675405 -0.006909 -0.541228 -1.106938 0.263530 0.146564 0.408407 0.077325 -0.579397 -0.815789 -0.693056 -0.855687 -0.413092 0.557600 0.064974 0.765667 -0.523461 0.348431 0.301022 -0.022978 0.027072 -1.143681 -0.005334 1.119866 0.853610 -0.937580 0.854052 
Population 1.217761 -0.639604 0.767662 0.565428 -0.644671 -1.839301 -0.109657 -0.003252 0.781136 -0.256895 1.126920 -0.695033 -0.641197 -0.106942 -0.590211 1.749104 0.415837 -0.512885 0.446791 1.137289 -0.817043 0.263619 -0.385249 -0.309390 0.202917 0.529342 -1.661915 1.015306 0.314724 0.833475 0.649729 -0.955902 -1.536880 -0.205482 -0.376881 -0.748585 0.641100 -0.146266 1.187210 -0.424542 0.400943 0.251222 0.339292 -0.192145 -1.410484 0.661403 0.841836 0.615864 -0.643762 0.285564 
Logic_programming 0.644992 -0.986088 -0.463847 -0.534691 -1.009155 -1.482400 -0.311228 0.420260 0.290069 -0.809585 1.059371 -0.942849 0.526386 0.297162 -0.747869 1.579355 1.277356 -1.066075 0.161259 0.804044 -0.307507 0.404201 -0.353845 -0.429341 0.221702 1.297454 -1.654627 1.279753 -0.093684 -0.224703 0.553011 -0.412369 -0.936707 0.252103 0.786363 0.104913 0.109693 -0.623796 0.707550 0.463241 0.109140 0.556447 0.173719 0.222568 0.107288 0.728599 -0.267339 -0.308647 -0.127442 0.168457 
Mapping 0.074009 -0.237077 -1.079640 -0.898211 0.165248 0.512392 0.229522 0.293598 -0.953900 -0.289371 0.351247 -1.037884 0.783436 0.173906 -0.099280 0.346482 1.165368 -1.002567 0.181116 1.164651 0.085834 0.065339 0.167604 -1.061034 0.181099 0.219510 -1.407269 -0.282199 -0.119921 -1.541919 -0.038199 0.797593 -0.156407 -0.144059 0.692948 1.421505 0.289393 -0.310646 0.315913 0.724384 -0.808890 0.637096 -0.236914 0.595899 1.405393 0.447668 -0.340813 -0.876123 0.319432 0.093644 
Networks 1.225695 0.390209 0.617514 0.670611 0.971746 1.571791 -0.283417 -0.584736 -0.565688 0.266453 -0.591783 0.153141 -1.703195 -0.442992 0.471249 0.498579 0.541173 -0.770287 0.310855 0.657650 -0.263117 1.111097 0.823600 -0.942065 -0.653838 -1.499483 0.012279 -0.859282 0.152040 -0.788299 -0.317634 0.172488 -0.288057 -1.327747 -0.515634 0.797199 0.748550 0.281768 0.263140 -0.792712 -0.796279 0.574727 -0.537623 0.435227 -0.357980 0.739369 0.832549 1.363472 -0.952511 0.188333 
Social_network 1.142023 0.233923 0.874714 0.932292 0.974363 0.440972 0.434078 -0.437972 -0.026271 0.716030 -0.121665 0.839794 -1.759798 -0.877200 0.424058 0.212418 -0.277914 -0.624673 0.672095 1.746189 0.068851 0.120862 0.311049 -1.478755 -0.396647 -2.331923 -0.464568 -0.452534 0.329889 -0.135363 -0.439776 0.076882 -0.574845 -0.812384 -1.707735 0.125774 0.867029 0.214008 1.145805 -0.729408 -0.173813 0.400370 -0.022488 -0.005799 -0.634802 0.127089 0.931933 1.228007 -0.646721 0.693977 
Data_structure -0.373960 -1.039303 -1.094904 -1.136245 -0.229843 -0.278246 1.244059 0.313402 0.120624 -0.411861 1.054716 1.323855 -0.077675 0.042133 -0.629629 0.206282 -0.097287 -0.703974 0.398386 0.988465 0.756878 -0.449008 -0.250756 -1.554685 0.678344 -1.701255 -0.678877 1.096575 0.498778 -0.259166 -0.226191 0.385722 -0.322312 0.558143 -0.156312 0.203716 0.291162 -0.975625 1.193382 0.578483 -0.386663 0.464460 0.651028 -0.269480 1.580067 0.114322 -0.925583 -0.277719 0.977515 -0.240181 
Cluster_analysis 1.567986 -0.204722 1.208841 0.792088 -0.089663 -1.750844 0.236920 -0.036583 0.693072 0.000963 0.701077 -0.390008 -0.875924 -0.572129 -0.194103 1.406259 0.519758 -0.748311 0.687666 1.681301 -0.574322 0.228654 -0.320231 -0.710793 -0.166920 -0.108279 -1.444076 0.758826 0.218406 0.465748 0.278415 -0.791736 -1.355088 -0.398557 -1.132381 -0.899488 0.583045 0.016633 1.413756 -0.577358 0.763345 0.364772 0.136726 -0.092438 -1.348647 0.131177 1.140469 0.738172 -1.229967 0.810935 
Information_system -0.460365 -1.004758 -1.025303 -1.273800 -0.237433 -0.193689 0.758458 0.169708 -0.151004 -0.552760 1.061849 0.814007 -0.034004 0.092890 -0.546429 0.520957 0.198402 -0.436835 0.414415 0.463060 0.503854 0.111258 -0.016312 -1.281039 0.356223 -1.103130 -0.706525 1.060687 0.253613 -0.508475 -0.142094 0.391583 -0.388547 0.581729 0.198808 0.313218 0.118610 -1.004318 1.036188 0.548890 -0.342703 0.632188 0.545609 -0.293881 1.639158 0.407937 -1.064477 -0.530793 0.758820 -0.605870 
Humanreadable_medium 0.537913 0.332057 -0.172463 0.162386 1.179787 1.856428 -0.084110 -0.196470 -1.101570 0.480621 -0.549463 -0.393962 -0.903385 -0.085796 0.425181 -0.182491 0.379688 -0.848973 0.258162 1.543814 0.194303 0.403407 0.811002 -1.332316 -0.302092 -1.497268 -0.706858 -1.322758 0.117047 -1.307744 -0.260374 0.858711 -0.263251 -0.995719 -0.502415 1.414072 0.984064 0.264017 0.609775 -0.280156 -1.310017 0.532759 -0.421716 0.471357 0.391822 0.727302 0.551807 0.636105 -0.250453 0.386791 
High_and_lowlevel 1.877609 0.233359 0.829632 0.450057 0.349407 1.104955 0.066332 -0.813109 0.085351 -0.445300 -0.120243 0.576466 -1.877048 -0.416520 0.359152 1.241280 1.274189 -1.111137 0.365697 -0.148372 -0.653866 1.536877 0.559320 -0.819081 -0.616717 -1.193198 0.393224 0.016783 0.421402 -0.389435 -0.288021 -0.597724 -0.198910 -1.493137 0.216087 0.430467 0.502077 -0.133554 -0.284659 -0.760738 -0.458449 0.694977 -0.618620 0.291681 -0.140562 0.444918 0.555528 1.360442 -1.125973 -0.058807 
Hoc_programming_language -0.544136 -0.296532 -1.065305 -0.788562 0.897574 0.876968 1.068729 0.121349 -1.039124 0.431450 0.477951 0.716598 -0.346024 -0.335089 0.015966 -0.394571 -0.412651 -0.484510 0.608253 1.889935 0.926305 -0.649617 0.360617 -2.126849 0.295659 -2.290019 -0.991852 -0.679338 0.442017 -0.995725 -0.243523 1.186383 -0.326299 0.144959 -0.890781 1.153526 0.882264 -0.396371 1.439842 0.287458 -0.948788 0.406716 0.455083 0.154370 1.655765 0.444835 -0.355675 -0.329964 0.946670 0.163986 
Applications 0.360757 -0.343423 -0.004939 0.144004 0.352996 0.460959 0.394390 -0.183274 0.066048 0.359769 0.347292 0.900077 -1.096904 -0.291030 -0.234025 -0.098068 -0.708540 -0.599311 0.556206 1.458934 0.356414 -0.554466 0.117742 -1.183647 0.246117 -1.861345 -0.360022 -0.001534 0.596100 0.207006 0.132656 0.350015 -0.531394 -0.635694 -0.866429 0.180831 0.823608 -0.169488 0.958448 -0.225087 -0.370108 -0.106921 0.251728 0.217205 -0.159815 0.207992 0.569828 0.837859 0.478055 0.435185 
Efficient 1.261717 -1.274217 -0.296525 -0.415243 -1.092917 -0.693652 0.308626 0.338503 1.115432 -1.348306 1.016007 0.988791 -0.878813 0.362550 -0.901850 1.752826 0.963622 -1.204166 0.033110 0.147793 -0.538642 0.605380 -0.368459 -0.899803 0.527299 -0.678076 -0.432406 1.984458 0.654379 0.557346 0.332932 -0.620893 -0.936064 -0.472276 0.956129 -0.618823 0.294138 -0.911609 0.581185 0.083610 -0.421578 0.591590 0.265269 -0.043404 0.311203 0.639161 0.093629 0.874443 -0.250846 -0.359618 
Extraction 1.379342 -0.382461 0.921857 0.737111 -0.458639 -1.472649 -0.173772 0.109197 0.753615 -0.155388 0.567332 -0.575133 -0.629327 -0.105394 -0.351242 1.422375 0.573943 -0.710490 0.311906 1.468467 -0.652016 0.268634 -0.245877 -0.287156 0.039661 0.301371 -1.435211 0.955158 0.006618 0.484710 0.302480 -0.769007 -1.222045 -0.293014 -0.439481 -0.783999 0.412389 0.032230 1.081154 -0.284349 0.463956 0.505885 0.165839 -0.298442 -1.411898 0.354148 0.889944 0.713411 -0.971262 0.586414 
Datasets -0.349973 -1.137547 -0.904770 -0.666158 -0.462237 -0.951702 -0.994919 0.501928 -0.266779 0.010788 0.614210 -0.961107 0.791064 0.410336 -0.715575 0.795838 0.253694 -0.403908 0.213513 1.402375 0.109174 0.186323 0.277246 -0.491933 0.259190 1.151421 -2.427644 0.389785 -0.577931 -0.630551 0.168847 0.153723 -1.029386 1.158841 0.446066 0.325711 0.289199 -0.389500 1.355005 0.617902 -0.286816 1.035464 0.505463 -0.429468 -0.204464 1.090483 -0.766512 -0.719997 0.230201 -0.399550 
Java 1.018281 0.497549 0.906254 0.536132 1.149424 0.055651 1.364466 -0.307544 -0.235642 0.696499 0.297888 0.208327 -1.076559 -0.996724 0.261887 0.168783 0.131636 -0.773645 0.818563 2.110651 0.056833 -0.271231 0.094661 -1.455431 -0.415221 -1.778220 -0.528680 -0.305486 0.549667 -0.335424 0.037659 -0.099750 -0.691895 -0.881334 -1.887974 0.094357 0.973266 0.150672 1.230062 -0.767983 0.494057 -0.182296 -0.263230 0.389828 -0.368953 -0.504625 1.281953 0.947584 -0.718537 1.154199 
Modeling 0.338671 -0.148144 -0.631416 -0.430309 -0.065183 0.264962 -0.376745 0.155184 -0.724757 -0.329974 0.367419 -1.522793 0.596720 0.312870 -0.158502 0.651821 1.011973 -0.821318 0.054165 0.889555 -0.278572 0.234664 0.108079 -0.420141 0.089316 0.840375 -1.303002 -0.278072 -0.202295 -0.986613 0.257580 0.341796 -0.268066 -0.140442 0.888561 1.183845 0.209875 -0.056234 0.095177 0.496363 -0.665485 0.443921 -0.255715 0.430443 0.597883 0.623590 -0.189539 -0.515749 0.083495 0.169899 
Personalization 0.966573 0.355253 0.157297 0.370790 0.914665 1.897612 -0.097317 -0.243530 -0.822922 0.240647 -0.658811 -0.390896 -1.065131 -0.045625 0.288586 0.182756 0.651511 -0.880765 0.059819 1.263717 -0.086852 0.605550 0.779616 -1.107992 -0.295467 -1.392967 -0.371681 -0.905473 0.040801 -1.291142 -0.206680 0.654427 -0.285246 -1.296322 -0.090579 1.026108 0.809655 0.333541 0.330075 -0.285017 -1.155288 0.530257 -0.451681 0.439032 0.214569 0.620231 0.693355 0.929617 -0.597015 0.452523 
Distributed 0.822925 -0.952819 -0.271889 -0.124747 -0.755702 -0.508709 -0.388484 0.134276 0.742018 -0.880521 0.766266 0.533676 -0.811557 0.304721 -0.592463 1.412700 0.516175 -0.625240 0.049561 -0.441856 -0.435188 0.598465 -0.098932 -0.351585 0.320699 -0.142171 -0.307294 1.053704 0.576037 0.703384 0.378824 -0.475778 -0.770828 -0.367492 0.648322 -0.296209 0.325100 -0.620046 0.245855 -0.116106 -0.480718 0.261216 0.145361 0.103015 -0.159537 0.993140 0.114723 0.730409 0.044386 -0.509645 
based 1.130881 0.548982 0.877352 0.700956 1.078069 0.283119 0.907382 -0.267342 -0.188180 0.601711 0.024942 0.216616 -1.298653 -0.822603 0.304314 0.086473 0.085562 -0.825601 0.725344 2.100694 0.040946 -0.130997 0.227200 -1.428048 -0.401916 -1.833524 -0.513186 -0.432716 0.300771 -0.447148 -0.180928 0.085153 -0.530281 -0.923145 -1.610762 0.172452 0.850405 0.219169 1.147906 -0.644716 0.094596 0.174447 -0.207936 0.265974 -0.371564 -0.282034 1.081198 1.005979 -0.811352 1.064384 
User 1.098007 0.658778 0.262156 -0.066666 1.227483 2.044402 0.070201 -0.589531 -1.265383 -0.044542 -0.537547 -0.456061 -1.175458 -0.339849 0.503076 0.374822 1.134700 -1.020556 0.282054 0.856384 -0.253149 0.994239 0.913904 -1.191023 -0.813168 -1.282624 -0.073532 -1.203084 0.098263 -1.440367 -0.322290 0.425857 -0.009132 -1.292285 -0.115588 1.369062 0.769739 0.169441 0.186684 -0.470397 -0.868323 0.542701 -0.653189 0.691444 0.692248 0.367472 0.455568 0.695530 -0.918967 0.303400 
Run_time_program_lifecycle_phase 0.779953 -0.979840 0.542099 0.020996 -0.731592 -2.194609 0.090561 0.368116 0.501127 -0.565425 1.465262 -1.192785 -0.072637 0.065305 -0.974096 2.072600 0.685062 -0.521212 0.293269 1.341102 -0.872381 0.284068 -0.529841 -0.287819 0.117247 1.109665 -2.031632 1.357819 0.235406 0.566924 0.979873 -0.988600 -1.801490 0.258941 -0.302845 -1.062964 0.669278 -0.249672 1.769768 -0.218543 0.719461 0.200438 0.567006 -0.173333 -1.057839 0.705720 0.778286 0.197409 -0.813621 0.395857 
Embedded_system 2.295008 -0.402311 1.051058 0.627080 -0.489939 -0.306587 0.041011 -0.528822 1.038364 -0.864257 0.427727 0.679200 -1.879074 -0.295351 -0.139646 2.116536 1.329046 -1.268896 0.476988 -0.029407 -1.011355 1.584423 0.040169 -0.741473 -0.401812 -0.791496 -0.009291 1.311481 0.517588 0.337667 -0.056768 -1.122115 -0.886967 -1.379038 0.209855 -0.473255 0.362751 -0.459156 0.211899 -0.761643 0.120603 0.834952 -0.373474 0.032149 -0.757212 0.523970 0.790829 1.639817 -1.341642 -0.083275 
ISWC 0.708068 -0.655215 0.310435 -0.536561 -0.553721 -1.398970 -0.057416 0.391486 -0.047060 -0.831768 0.988499 -1.622712 0.409332 0.215220 -0.763576 1.808661 1.436885 -0.608526 0.135195 0.774906 -0.850790 0.819570 -0.148328 -0.218760 -0.147395 1.500668 -1.660522 0.952247 -0.296273 -0.579331 0.583945 -0.657003 -1.255798 0.189122 0.395493 -0.410264 0.237117 -0.292803 1.163063 0.030647 0.579273 0.619666 0.144580 -0.023972 -0.212095 0.540758 0.232380 -0.366506 -1.041594 0.122593 
Library_computing 0.494942 -1.172748 0.188460 -0.160989 -0.791208 -1.843355 -0.769237 0.344891 0.380616 -0.516113 1.023193 -0.917062 0.083099 0.184917 -0.911664 1.899257 0.443184 -0.516203 0.332284 1.044273 -0.544702 0.611961 -0.147204 -0.291077 0.072775 1.176479 -2.093829 1.267832 -0.205439 0.148370 0.535859 -0.617487 -1.625331 0.549611 0.051705 -0.722336 0.347904 -0.327224 1.649119 0.069834 0.417575 0.831689 0.537134 -0.405338 -0.905191 0.981106 0.097803 -0.063556 -0.520303 -0.127118 
Upper_ontology 1.676483 -0.744219 0.300730 -0.188277 -0.850515 -0.774334 0.337145 -0.073338 0.948887 -1.335377 0.871956 0.601633 -0.936973 -0.014132 -0.525290 1.892470 1.347006 -1.231282 0.339121 -0.145481 -0.722853 1.045876 -0.233045 -0.774843 0.041987 -0.328786 -0.184452 1.762735 0.432153 0.300350 0.135515 -0.880795 -0.723439 -0.821496 0.765656 -0.466062 0.101107 -0.850849 0.198485 -0.242403 0.031705 0.738547 -0.087984 0.012047 0.131065 0.309779 0.211990 0.737036 -0.732950 -0.280579 
Metadata -0.013842 0.173813 -0.858514 -0.727342 0.750461 1.322018 0.130145 0.096632 -1.470708 -0.016024 0.112966 -1.249883 0.288617 0.177306 0.096997 0.143425 0.762622 -0.634716 0.112313 1.277670 0.091292 -0.066862 0.480336 -1.143832 0.088949 -0.259406 -1.187555 -1.236801 0.148963 -1.329737 0.216927 0.938220 -0.190759 -0.330623 0.389086 1.652177 0.767069 0.073412 0.436579 0.394541 -1.185424 0.260012 -0.194864 0.574357 1.190840 0.625432 0.038378 -0.522530 0.428049 0.238052 
Wiki 1.016523 -0.639216 0.120246 0.060947 -0.596340 -0.565169 -0.288367 -0.099917 0.571000 -0.789617 0.759834 0.084623 -0.627045 0.140823 -0.476831 1.476508 0.616165 -0.792661 0.268264 -0.039742 -0.505371 0.657737 -0.065147 -0.426978 0.161060 -0.048206 -0.381355 0.999152 0.338911 0.354752 0.371352 -0.553384 -0.701770 -0.611243 0.427340 -0.234558 0.204163 -0.426905 0.218323 -0.169119 -0.144001 0.374608 0.004994 0.042246 -0.190926 0.599741 0.133641 0.601658 -0.299644 -0.159616 
Categorization 1.483076 -0.008445 1.221532 0.937779 0.249440 -0.991485 0.469006 -0.312397 0.541591 0.250861 0.645813 -0.175360 -1.213548 -0.674760 -0.104491 1.003407 0.205851 -0.837818 0.750428 1.869845 -0.472627 0.033374 -0.182092 -0.784978 -0.181457 -0.780098 -1.117756 0.458365 0.365413 0.441389 0.277035 -0.726311 -1.120665 -0.769313 -1.316293 -0.559116 0.790486 0.077752 1.161958 -0.760599 0.536427 0.172877 0.095565 -0.024208 -1.336769 -0.017643 1.257842 1.079095 -0.975706 0.964671 
Scalable 0.981975 0.480936 -0.741360 -0.790257 1.036267 2.043130 0.413009 0.224372 -1.295983 -0.240626 -0.311659 -0.768666 -0.424257 0.320484 0.065312 0.347465 1.896992 -1.404887 -0.202890 1.894363 -0.239673 0.177021 0.783413 -1.380622 -0.023228 -1.001915 -0.773257 -1.248022 0.182861 -1.752824 -0.116317 0.616247 -0.019756 -0.847422 0.766202 1.665040 0.802435 0.264200 0.305271 0.325332 -1.312948 0.392632 -0.496356 0.651211 1.336112 0.294872 0.275301 0.235209 -0.558800 0.553044 
Time_complexity 0.841313 0.368287 -0.195336 -0.162072 1.207113 0.979086 1.573310 -0.000376 -0.693572 0.345257 0.299442 0.342995 -0.808898 -0.622045 0.130603 -0.251790 0.573034 -1.205816 0.620621 2.401302 0.375779 -0.705844 0.223530 -1.898204 0.032670 -2.149776 -0.502827 -0.642517 0.683942 -0.925205 -0.046882 0.533712 -0.278130 -0.899662 -1.046188 1.091483 1.041895 -0.015776 0.927904 -0.114659 -0.428779 -0.141134 -0.307794 0.705788 0.872335 -0.412401 0.724458 0.618801 -0.036297 1.090541 
Recommender_system 0.619552 0.224718 -0.111711 0.015334 0.632353 1.469540 -0.183971 0.043048 -0.757610 0.079996 -0.421528 -0.716485 -0.390658 0.147419 0.112738 -0.023626 0.604291 -0.817329 -0.022843 1.236472 0.023694 0.256022 0.525618 -0.879607 -0.130301 -0.797661 -0.642437 -0.602667 -0.084704 -1.192690 -0.156823 0.755937 -0.254994 -0.954684 0.074455 0.957010 0.653566 0.265313 0.302073 0.082367 -1.078032 0.553687 -0.380643 0.303334 0.371261 0.433722 0.429078 0.384264 -0.349444 0.436457 
Database_schema 1.145666 0.650348 0.142102 0.049539 1.305486 1.832460 0.511502 -0.085433 -1.105104 0.263581 -0.456709 -0.476200 -0.986309 -0.283857 0.395472 0.155019 1.232519 -1.103258 0.220415 1.632114 -0.154851 0.596930 0.832349 -1.427638 -0.453791 -1.424552 -0.488764 -1.163274 0.196901 -1.552509 -0.150371 0.561098 -0.261313 -1.326688 -0.476122 1.211969 0.939011 0.330050 0.477870 -0.405087 -0.897661 0.330929 -0.722236 0.745151 0.583315 0.398910 0.911287 0.836505 -0.994981 0.650929 
SQL -0.509125 -1.296979 -1.432930 -1.728360 -0.524404 -0.566328 0.772764 0.569008 -0.155857 -0.889442 1.404577 0.459013 0.514867 0.360734 -0.914208 0.908097 0.671586 -0.630653 0.291287 0.529992 0.373349 0.009250 -0.119912 -1.329844 0.618535 -0.484616 -1.069151 1.278847 0.201296 -0.585986 0.225191 0.287235 -0.569851 0.864565 0.622049 0.230187 0.109140 -1.116075 1.071279 0.769534 -0.306786 0.591968 0.643979 -0.229375 1.847538 0.581688 -1.173353 -0.858545 0.732213 -0.632797 
Dynamic 1.227074 0.608776 0.533834 0.232300 1.186408 1.679490 0.411349 -0.528092 -0.702295 0.214774 -0.533820 0.336142 -1.552160 -0.501862 0.478420 0.346280 0.862878 -0.912466 0.323514 0.941088 -0.179941 0.780753 0.762218 -1.279805 -0.608040 -1.881075 0.232664 -0.889960 0.314132 -1.007944 -0.389181 0.244097 -0.106971 -1.266580 -0.525774 0.824312 0.745965 0.161718 0.295290 -0.652854 -0.646449 0.409404 -0.539003 0.512737 0.284725 0.136995 0.734272 1.099027 -0.962760 0.366680 
Data_access 0.022586 0.105493 -0.796172 -0.565714 1.319706 2.054839 0.184495 0.008641 -1.628507 0.351293 -0.360187 -0.566440 -0.492462 -0.140757 0.247178 0.037823 0.559645 -0.700308 0.216198 1.424362 0.205173 0.237648 0.918922 -1.640981 -0.109414 -1.288165 -0.938511 -1.600292 0.273054 -1.701049 -0.192483 1.227332 -0.191942 -0.658426 0.030397 1.795393 0.987041 0.056342 0.535802 -0.011635 -1.517168 0.397572 -0.235815 0.775504 1.116690 1.090824 0.207804 0.019838 0.210953 0.115888 
Data_Web 2.249020 0.035757 0.932686 0.702867 -0.035553 0.580757 0.029287 -0.533371 0.606416 -0.431154 -0.128641 0.495947 -1.779351 -0.230278 0.215989 1.532171 1.560870 -1.396442 0.251181 0.680977 -0.762594 1.415727 0.454402 -0.860720 -0.381761 -1.203680 -0.097836 0.450195 0.229374 -0.196880 -0.318034 -0.726649 -0.537175 -1.462560 0.330298 0.126551 0.411749 -0.077043 -0.008212 -0.603783 -0.253097 0.933959 -0.620140 0.049321 -0.582813 0.403205 0.773492 1.586391 -1.358975 0.162732 
Sciences -0.597955 -0.918615 -0.031314 -0.635775 0.450025 -0.836561 -0.831657 -0.720310 -0.721364 -0.091882 1.203807 0.242827 -0.954189 -0.715276 -0.155528 1.499280 -0.904322 0.783383 0.936367 -1.145042 -0.034701 1.241027 0.605072 -0.802347 -0.529031 0.027787 -0.878444 -0.192407 0.466485 0.528012 0.385200 -0.194105 -1.206720 0.774616 -1.111245 -0.159203 0.691710 -0.591242 1.267121 -0.979922 -0.184800 0.404356 0.658112 0.002335 -0.272054 1.743654 -0.394250 -0.288073 0.418504 -1.487584 
Rewriting -0.149862 -0.112512 -1.012294 -0.754772 0.824663 1.008682 1.091065 0.221511 -0.986135 0.384219 0.478571 0.128278 -0.152140 -0.159593 -0.011213 -0.236007 0.129966 -0.712372 0.465540 2.028994 0.558923 -0.750963 0.268696 -1.744699 0.374519 -1.690089 -0.934024 -0.840696 0.623731 -0.924417 0.132651 0.932545 -0.315137 -0.202240 -0.464324 1.303212 0.915141 -0.185380 0.895238 0.327870 -0.858661 -0.097880 0.067191 0.597483 1.300128 0.305479 0.068973 -0.093008 0.885498 0.427978 
Desktop_computer -0.220167 -1.443863 -0.748536 -0.794101 -0.889997 -0.840170 -0.542563 0.207537 0.009216 -0.904232 1.601891 -0.698292 0.220928 0.697758 -1.260358 1.772907 0.003958 -0.313728 0.048486 0.259908 -0.355981 0.133771 -0.020438 -0.521273 0.652847 0.730971 -1.363738 0.923558 0.230751 0.290638 0.863408 0.014004 -1.144409 0.525928 0.815131 -0.353216 0.473649 -0.420407 1.083520 0.414329 -0.078601 0.214368 0.811804 -0.287788 0.362614 1.246944 -0.633962 -0.569738 0.570180 -0.462235 
2005 1.233744 0.203112 0.410432 0.548105 0.119648 0.515419 0.246030 -0.271608 0.260167 -0.064087 -0.149702 0.216604 -0.930203 -0.175395 0.171377 0.395970 0.630626 -0.924322 0.243212 0.622999 -0.243901 0.296469 0.086417 -0.571478 -0.209590 -0.906833 0.127002 0.070323 0.308651 -0.221603 -0.182593 -0.123094 -0.070749 -1.067206 -0.000566 0.453417 0.326463 -0.048525 -0.106171 -0.278843 -0.213852 0.185156 -0.462317 0.380967 -0.167032 -0.034599 0.515346 0.961546 -0.474596 0.448558 
Precision_and_recall 1.320816 0.805233 0.557731 0.198241 1.276320 1.560910 0.431061 -0.232168 -1.172679 0.207501 -0.711983 -1.007622 -0.677047 -0.474741 0.529990 0.289850 1.636839 -1.256655 0.268749 1.545094 -0.216811 1.127638 0.818088 -1.359429 -0.983643 -0.999548 -0.541059 -0.865128 -0.336933 -2.184825 -0.233168 0.481858 -0.295408 -1.381217 -0.466946 1.205725 0.661588 0.324220 0.518483 -0.582199 -0.448638 0.821700 -0.896851 0.663663 0.598378 0.251586 0.752112 0.779175 -1.739861 0.750573 
CNRS -0.665299 -0.975550 0.154973 -1.066460 1.236474 -0.864065 -0.846225 -1.313303 -1.722977 -0.149599 1.648320 0.424475 -1.800896 -1.385228 0.210274 2.532347 -1.012725 1.223410 1.726115 -1.948383 -0.103656 2.346915 1.168689 -1.790989 -1.455948 -0.555900 -0.914811 -0.848810 0.814437 0.379649 0.448240 -0.228963 -1.970649 0.814273 -2.051304 -0.015413 0.955646 -0.833771 1.924233 -1.899189 -0.328661 0.839703 0.702443 0.165688 0.044626 2.685059 -0.315123 -0.381287 0.290220 -2.156513 
Gene_Ontology_Term_Enrichment -0.171800 -0.081462 -0.507636 -0.368227 0.823038 0.914922 0.855734 0.048245 -0.760281 0.513399 0.245658 0.656652 -0.568871 -0.299756 0.019820 -0.529993 -0.431080 -0.473904 0.564308 1.850531 0.740194 -0.586125 0.406978 -1.792909 0.191092 -2.211399 -0.641930 -0.610475 0.314690 -0.824107 -0.283087 0.983110 -0.243954 -0.183957 -1.040186 0.856195 0.839598 -0.180138 1.211216 0.159322 -0.707721 0.310380 0.255347 0.124440 1.006482 0.166005 0.019976 0.061216 0.550829 0.338510 
OntologyBased -0.484185 -0.894485 -1.119245 -1.107950 -0.290105 -0.127427 0.614817 0.144193 -0.197816 -0.300774 0.991248 0.699366 0.158876 0.017647 -0.426989 0.353754 0.087307 -0.446132 0.475181 0.549342 0.611204 -0.175783 0.071133 -1.275679 0.485639 -0.976389 -0.894221 0.692525 0.178309 -0.509187 -0.184429 0.447721 -0.254613 0.558814 0.159604 0.574496 0.120165 -0.966755 0.845897 0.642951 -0.409112 0.665658 0.457593 -0.232269 1.422933 0.452747 -1.081206 -0.610309 0.949716 -0.583735 
Scientific -0.799579 -0.245678 -0.867587 -0.611616 0.928629 0.972049 -0.598985 -0.297531 -1.625142 0.519910 0.103465 -0.401262 -0.109634 -0.261295 0.194307 -0.083658 -0.492736 0.181698 0.532247 0.564920 0.511018 0.343313 0.904025 -1.146441 -0.247579 -0.475804 -1.135799 -1.413837 0.075205 -0.987185 -0.023680 1.052141 -0.465954 0.337365 -0.546649 1.374623 0.805762 -0.084469 0.924498 -0.045127 -1.062920 0.498596 0.136794 0.357856 0.722279 1.306927 -0.390769 -0.531239 0.751579 -0.615672 
Mappings 0.556353 -1.014624 -0.780484 -0.906127 -0.748780 -0.587693 0.454557 0.668407 0.542649 -1.310538 0.966384 0.237741 0.204001 0.639176 -0.987348 1.184094 1.300836 -1.320753 0.005037 0.601210 -0.083068 0.291583 -0.333828 -0.746615 0.483273 -0.211739 -0.565372 1.745502 0.258241 -0.337502 0.449410 -0.258482 -0.687840 -0.177691 0.965924 -0.199622 0.047393 -0.764729 0.631752 0.527381 -0.187614 0.379990 0.182592 0.046749 1.131535 0.254655 -0.344808 0.194005 -0.152103 -0.077428 
Content 0.717137 -1.011188 -0.212442 -0.392118 -0.766426 -0.461116 0.063336 0.130020 0.618953 -1.007179 0.867557 0.659702 -0.602584 0.177615 -0.664521 1.225686 0.338127 -0.721960 0.234204 -0.026123 -0.239688 0.431788 -0.215594 -0.719092 0.317379 -0.445081 -0.317850 1.370986 0.441683 0.345587 0.134435 -0.258897 -0.687865 -0.298921 0.597070 -0.300273 0.154887 -0.798803 0.458590 0.124529 -0.305038 0.479010 0.251760 -0.067744 0.275582 0.552349 -0.099184 0.352718 0.129701 -0.414207 
Question_answering 0.264751 0.249783 -0.790543 -0.733366 0.884656 1.363733 0.575776 0.357508 -1.247642 0.273610 0.080491 -1.003824 0.265899 0.187645 0.078559 -0.024988 1.092268 -0.767859 0.155063 2.090422 0.195249 -0.218799 0.690143 -1.544217 0.326294 -0.905780 -1.291499 -1.001643 -0.053301 -1.610849 0.112613 0.878302 -0.230146 -0.361324 0.134316 1.435900 0.879443 0.176266 0.647671 0.542329 -1.022269 0.589475 -0.362727 0.174051 1.200979 0.423043 -0.022590 -0.356413 0.111795 0.400148 
Linking -0.110369 -0.473075 -0.881732 -0.618572 -0.105202 0.073154 -0.330782 0.274508 -0.645997 -0.013182 0.429021 -1.192330 0.751815 0.417235 -0.314908 0.360661 0.642030 -0.541018 0.126492 1.376999 0.053888 -0.020720 0.269571 -0.623617 0.335435 0.500211 -1.752859 -0.173850 -0.384772 -0.942471 0.225804 0.497142 -0.486688 0.343456 0.677445 0.913936 0.374205 -0.076682 0.725798 0.715347 -0.663129 0.742590 0.105305 -0.070402 0.553288 0.755838 -0.497343 -0.698430 0.338274 0.015544 
String_metric 1.193980 -0.360729 1.179158 0.380813 -0.170421 -1.942815 0.515607 0.062576 0.318099 -0.296857 1.111879 -1.031076 -0.444595 -0.446858 -0.459322 1.877147 0.807610 -0.555448 0.602515 1.262647 -0.834668 0.533127 -0.401678 -0.525256 -0.421473 0.606625 -1.378661 1.036931 0.247881 0.270777 0.664329 -1.076095 -1.646991 -0.213171 -0.981984 -1.109003 0.585624 -0.015753 1.581257 -0.739828 1.122212 0.165129 0.171027 -0.030095 -1.126055 0.150784 1.143436 0.484876 -1.442027 0.668073 
Crowdsourcing 1.150494 0.415035 0.868673 0.707568 0.815572 -0.021277 0.534912 -0.243679 -0.049280 0.588337 -0.009175 0.126375 -1.053589 -0.742986 0.275274 0.184270 0.183800 -0.843278 0.619881 2.127393 0.020100 -0.068209 0.202456 -1.194721 -0.356559 -1.447750 -0.741315 -0.288754 0.060101 -0.363046 -0.188831 -0.051568 -0.577307 -0.761900 -1.407403 0.049459 0.674117 0.237517 1.069490 -0.500837 0.205378 0.313174 -0.109303 0.088923 -0.637867 -0.230018 0.961899 0.842603 -0.812939 1.037560 
Knowledge_Graph 1.273504 -0.339745 0.803381 0.642759 -0.254097 -1.006006 -0.224994 -0.242554 0.631309 0.371649 0.549805 -0.514773 -0.694847 -0.138532 -0.098555 0.940477 0.476920 -0.504808 0.379632 1.512605 -0.504370 0.253909 0.122347 -0.348374 0.333961 -0.058724 -1.794192 0.397442 -0.150370 0.254969 0.217396 -0.529808 -1.259078 -0.327926 -0.503397 -0.456908 0.819037 0.068820 0.864236 -0.200230 0.059342 0.790392 -0.032069 -0.222949 -1.396052 0.602648 0.788052 0.523330 -0.564553 0.399371 
Domain 1.536757 -0.350652 0.498458 0.404098 -0.552029 -0.387478 -0.134316 -0.348287 0.828950 -0.568503 0.373524 0.275536 -0.962641 -0.049193 -0.141045 1.346638 1.019327 -1.053522 0.285061 0.184013 -0.566177 0.954707 0.031380 -0.308950 -0.056325 -0.278540 -0.371692 0.937808 0.202683 0.188508 -0.067434 -0.776030 -0.513981 -0.814181 0.432107 -0.117282 0.197834 -0.387470 -0.082234 -0.278237 -0.030077 0.707240 -0.290776 0.046637 -0.543265 0.402284 0.336348 0.933246 -0.704152 -0.044380 
Access -0.276282 -0.261101 -1.139195 -0.944474 0.788403 1.651984 -0.186578 0.163504 -1.615155 0.041544 -0.032244 -0.542716 0.012546 0.105606 0.090203 0.109832 0.422062 -0.621326 0.170739 0.970819 0.329865 0.305406 0.647546 -1.459968 -0.058265 -0.783846 -1.075298 -1.162258 0.200295 -1.618054 0.041944 1.310456 -0.272815 -0.319650 0.464149 1.754832 0.721373 -0.161811 0.545651 0.332709 -1.623812 0.475189 -0.081111 0.753890 1.489266 1.146347 -0.236335 -0.357297 0.586492 -0.225717 
Map 2.091083 0.022549 0.865208 0.541578 0.006189 0.195509 0.355196 -0.456459 0.630151 -0.579819 0.211642 0.601017 -1.618463 -0.331988 0.109802 1.480900 1.280209 -1.198813 0.340927 0.299427 -0.746227 1.102256 0.121442 -0.792007 -0.309076 -1.127100 0.167500 0.689940 0.528069 0.083995 -0.104157 -0.828846 -0.571349 -1.344000 0.029404 -0.201216 0.384936 -0.245459 0.012808 -0.662496 -0.049332 0.476312 -0.515974 0.181491 -0.420691 0.169202 0.856576 1.460389 -1.173187 0.168566 
Heuristic_computer_science 1.341518 0.322839 1.124651 0.796118 0.639974 -0.376371 0.953722 -0.401740 0.183807 0.470157 0.452913 0.141939 -1.236477 -0.918334 0.187685 0.548434 0.225707 -0.746205 0.863995 1.698786 -0.254931 -0.052569 -0.005301 -1.072009 -0.323963 -1.284737 -0.583056 0.098460 0.485943 0.099686 0.101641 -0.445526 -0.797568 -0.903470 -1.503511 -0.157996 0.816301 0.098411 1.026484 -0.810461 0.602020 0.006934 -0.173086 0.224447 -0.881343 -0.305223 1.202518 1.043322 -0.878632 0.967685 
